
//<![CDATA[

// a few things don't have var in front of them - they update already existing variables the game needs
lanesSide = 6;
patchesAhead = 12;
patchesBehind = 2;
trainIterations = 35000;

var num_inputs = (lanesSide * 2 + 1) * (patchesAhead + patchesBehind);
var num_actions = 5;
var temporal_window = 0;
var network_size = num_inputs * temporal_window + num_actions * temporal_window + num_inputs;

var layer_defs = [];
layer_defs.push({
    type: 'input',
    out_sx: 1,
    out_sy: 1,
    out_depth: network_size
});
layer_defs.push({
    type: 'fc',
    num_neurons: 36,
    activation: 'relu'
});
layer_defs.push({
    type: 'fc',
    num_neurons: 24,
    activation: 'tanh'
});
layer_defs.push({
    type: 'regression',
    num_neurons: num_actions
});

var tdtrainer_options = {
    learning_rate: 0.001,
    momentum: 0.0,
    batch_size: 64,
    l2_decay: 0.01
};

var opt = {};
opt.temporal_window = temporal_window;
opt.experience_size = 3000;
opt.start_learn_threshold = 500;
opt.gamma = 0.95;
opt.learning_steps_total = 10000;
opt.learning_steps_burnin = 1000;
opt.epsilon_min = 0.02;
opt.epsilon_test_time = 0.0;
opt.layer_defs = layer_defs;
opt.tdtrainer_options = tdtrainer_options;

brain = new deepqlearn.Brain(num_inputs, num_actions, opt);

learn = function (state, lastReward) {
    brain.backward(lastReward);
    var action = brain.forward(state);

    draw_net();
    draw_stats();

    return action;
}

//]]>
    
/*###########*/
if (brain) {
brain.value_net.fromJSON({"layers":[{"out_depth":182,"out_sx":1,"out_sy":1,"layer_type":"input"},{"out_depth":36,"out_sx":1,"out_sy":1,"layer_type":"fc","num_inputs":182,"l1_decay_mul":0,"l2_decay_mul":1,"filters":[{"sx":1,"sy":1,"depth":182,"w":{"0":0.07081812988568174,"1":0.11369316249347317,"2":0.09572385924445734,"3":-0.07652027700693147,"4":0.13094570549399268,"5":0.08321701013390985,"6":-0.0996711509525737,"7":-0.12414770919828617,"8":-0.0422343870435956,"9":0.06211411691496152,"10":-0.04865257686323694,"11":-0.07261734921424497,"12":0.12082450122656367,"13":0.011552897612258297,"14":-0.02329542310752261,"15":0.027874230855505933,"16":-0.09216855329783002,"17":-0.008723686570477025,"18":0.003922734908916138,"19":-0.019966891354090147,"20":0.04582287791352026,"21":0.0033452467599986453,"22":0.035294541045565925,"23":-0.0589258015191689,"24":0.0022696420992744984,"25":0.04374271442236453,"26":0.15772052573036824,"27":-0.009441421048849388,"28":-0.008773941177212951,"29":0.07320863725450899,"30":-0.0006694325819233266,"31":-0.07863542947555806,"32":-0.0012423739979683685,"33":0.019223578318938787,"34":-0.0009569527782077537,"35":-0.04006691459586628,"36":-0.05676142068103221,"37":0.1359434428640215,"38":-0.03925423888908777,"39":0.027366292366979367,"40":-0.014591123148204474,"41":-0.07121968715099028,"42":-0.1266640081750501,"43":-0.08752828384746597,"44":-0.06361002337059948,"45":-0.024187077729880938,"46":-0.10484409699120162,"47":-0.014418302443244935,"48":-0.14416613945919463,"49":-0.020196242910233402,"50":-0.06953867080030593,"51":-0.12288617577896072,"52":-0.08357496800694811,"53":0.02183421284588693,"54":-0.10997680012394215,"55":-0.10733207744012144,"56":0.10398771587276542,"57":-0.057966628058366526,"58":0.09358010249109035,"59":0.00967202911062035,"60":-0.023201752363824445,"61":0.005527336292787991,"62":0.0616556920701677,"63":-0.03403358108363535,"64":-0.06924040004125613,"65":-0.024189294646768635,"66":-0.03454198705777675,"67":0.02770300440012242,"68":-0.07379505161506529,"69":0.04901806954872329,"70":0.07988123416296074,"71":-0.01295793047134004,"72":0.08269584892339273,"73":0.0748376185042285,"74":-0.04068005485318871,"75":0.019486208722786426,"76":0.018689412868453294,"77":-0.10167025769737766,"78":0.051643691585194544,"79":-0.04389794457714392,"80":-0.03318098103797859,"81":0.030175752457025768,"82":0.005866546836762115,"83":0.06460893154219444,"84":-0.08358624896985685,"85":0.03168795028565334,"86":-0.07603633694884188,"87":0.01723565012633401,"88":0.11431293448019147,"89":-0.022279549960057904,"90":-0.012222225701531239,"91":-0.01648936890655259,"92":0.07462184921120756,"93":0.12001940462849177,"94":-0.08003344544376546,"95":-0.1614865359625246,"96":0.03498228703375236,"97":-0.058542346821144085,"98":0.03717310860229382,"99":0.0000675307108184993,"100":-0.0030645654443845105,"101":0.042250462035869525,"102":-0.022523870073740456,"103":0.039551791067202864,"104":0.09425334697463339,"105":0.011910026904748836,"106":0.05989025663814224,"107":-0.011224208608850749,"108":0.07714415888946467,"109":-0.04598055417364704,"110":-0.035802975118641285,"111":-0.018015441198636642,"112":0.028379448451187263,"113":0.011421396324483522,"114":0.006975812184964863,"115":-0.039257715876544245,"116":0.09518000899286928,"117":0.04152976649519095,"118":-0.05313653559666614,"119":0.033330832212124184,"120":-0.0025957439110914503,"121":-0.008537869201799698,"122":-0.0027630928872402864,"123":-0.012415579336366176,"124":0.09751991204458975,"125":0.0539723815293713,"126":-0.011718238415067242,"127":0.038609383498362904,"128":-0.06636217275875407,"129":0.04681400609781768,"130":0.08716542388891829,"131":-0.05240260076575836,"132":0.01767957552288523,"133":-0.08023788676476885,"134":-0.07804561083304297,"135":0.03697408141667058,"136":0.05558592271135298,"137":0.03096197274303676,"138":-0.15390381256524438,"139":0.026754931645623543,"140":-0.010089425510503574,"141":-0.04018784798180657,"142":-0.03977181037070571,"143":0.15302780836257607,"144":-0.02943973211980118,"145":0.049552993873226384,"146":-0.056864915598561716,"147":0.06341819874258436,"148":-0.0034790162986444093,"149":-0.0675066199270642,"150":0.09841799057872555,"151":-0.03425114432858424,"152":-0.14299310026756956,"153":0.11493525466429305,"154":-0.068145088620965,"155":-0.07449666792400356,"156":-0.02820902910455394,"157":-0.07466874401573437,"158":-0.01978068274760865,"159":-0.02398945540842673,"160":-0.025626797088241574,"161":-0.04295178550092301,"162":-0.16057018731852848,"163":0.05926699399500731,"164":0.03188943682519004,"165":0.03177640047005197,"166":0.05171435500286762,"167":-0.02371037121138081,"168":-0.11805098341147398,"169":-0.05895329911653882,"170":-0.029997216928314446,"171":0.023873719581135395,"172":-0.06218441759887088,"173":-0.10279087835475603,"174":0.11393697751956047,"175":0.018789321388727194,"176":-0.07819146397317454,"177":-0.03549515229827795,"178":-0.08529321678269086,"179":-0.07545992229615293,"180":0.01760492589212282,"181":0.011942112031503025}},{"sx":1,"sy":1,"depth":182,"w":{"0":0.1435112141784976,"1":0.03506294604872233,"2":0.04244867273296016,"3":0.10423616451446127,"4":0.06892930536451591,"5":-0.09021085590570634,"6":-0.07850921379364442,"7":-0.08622669475264177,"8":-0.036483201117075925,"9":0.025495296953597712,"10":-0.03864912993068391,"11":0.04445720188642392,"12":0.11428587887750948,"13":0.05148688675774662,"14":-0.009718882391801246,"15":0.08629368926216605,"16":-0.022685929734558085,"17":0.057887442868582724,"18":-0.04901626325988451,"19":-0.019172815167893015,"20":-0.010752453959145756,"21":0.05524322484868297,"22":-0.05556595848456542,"23":-0.0622197366992527,"24":-0.10394284469133432,"25":-0.04048652367900461,"26":0.008847736332222854,"27":-0.024217292302735158,"28":-0.08215002523119368,"29":-0.033901954558256286,"30":-0.03735491517993619,"31":-0.03311013312786299,"32":-0.08079122079665156,"33":0.10879642207776452,"34":-0.04607351046060827,"35":0.053522841374309876,"36":-0.05318166817427163,"37":-0.10045065875750106,"38":-0.05944035946436938,"39":-0.017895575869568674,"40":-0.08528529699469084,"41":0.03563155138829671,"42":0.037317242148217016,"43":0.015929002459999182,"44":0.07758791070838074,"45":-0.023731705450490612,"46":0.09963252938463203,"47":0.023247245025346804,"48":0.049579752510816366,"49":-0.013352483107944076,"50":0.017699725092473053,"51":-0.17302954491969227,"52":-0.014916601280352049,"53":0.007218907844713339,"54":-0.0007491852488714139,"55":-0.1718511599266328,"56":-0.01223156628124622,"57":-0.016604010341760206,"58":-0.05006691842534518,"59":-0.04058594458110091,"60":-0.009616138948389207,"61":0.08950284313748473,"62":-0.06305959580800112,"63":-0.0380247482211001,"64":-0.013202741985627486,"65":0.11378163447422092,"66":-0.12300772202594598,"67":-0.022247910997658337,"68":-0.04213551682041259,"69":-0.03301853993832811,"70":0.14331972420486083,"71":-0.0699964968487256,"72":-0.01920145507430506,"73":-0.04499198047950938,"74":-0.09925441420100471,"75":0.00638990202629195,"76":0.04661684477824264,"77":-0.028848672601880194,"78":0.08042364736033951,"79":-0.07082387489365645,"80":0.11585891881490314,"81":-0.126405284407398,"82":0.06159053147480804,"83":-0.10817297124361146,"84":0.031012034705390126,"85":0.0437373112598574,"86":-0.06568955918813774,"87":-0.06495325673944007,"88":-0.043506229528856695,"89":-0.0828203121720805,"90":0.10859925942481835,"91":-0.01618190711961492,"92":0.05233360564948477,"93":0.14374224139505207,"94":-0.11706290440439567,"95":-0.08390655057605184,"96":0.05698147216583972,"97":0.058950080292810125,"98":-0.03925766636989326,"99":0.1830489939019037,"100":0.05060343339924242,"101":0.04745834469504849,"102":-0.10749166308339475,"103":-0.03080844850404528,"104":0.10977198683758625,"105":0.182253468682607,"106":0.03527321357824806,"107":-0.015315373462786457,"108":-0.027614480156941325,"109":-0.10595459769062177,"110":-0.039255821711368974,"111":0.02194327150708762,"112":0.02666727797758692,"113":0.10571511592281659,"114":0.0034680914341629963,"115":0.06567824303991138,"116":-0.06111973022036205,"117":-0.05269018935158751,"118":0.012583358703057738,"119":0.005935059814855959,"120":-0.17573819348700323,"121":-0.14518811044364607,"122":0.10359099469688139,"123":-0.03334402262995937,"124":0.08293037779508326,"125":-0.034216195269826694,"126":-0.10121807414133607,"127":0.08368307994086847,"128":0.03158576364568498,"129":-0.03540650641685912,"130":-0.012664207228720708,"131":-0.1210423264244623,"132":0.06883167159540389,"133":0.066038271589336,"134":-0.014030869359387244,"135":-0.004809939365534214,"136":-0.17925822998734775,"137":0.06578939817051017,"138":-0.07699390519075794,"139":-0.14913362720426693,"140":-0.055670628675739194,"141":-0.06301808691762618,"142":-0.07653452689219725,"143":0.03132626059778386,"144":0.07148319287378577,"145":-0.0505658659162432,"146":0.03364084839284736,"147":0.09039091715005733,"148":0.051696743257870326,"149":-0.11311320597871842,"150":0.023499392664316325,"151":-0.12835894459922353,"152":-0.05056771217023077,"153":-0.0022089657770357715,"154":-0.017220591628549876,"155":-0.006973975675212093,"156":0.09405581590917181,"157":0.11502176980529903,"158":0.011551584851713759,"159":-0.0269773327401143,"160":-0.03394121208776253,"161":0.02690945256071368,"162":0.24597496072964253,"163":0.03728893575789211,"164":0.12138865557737573,"165":-0.01690653850449366,"166":-0.002896346271537479,"167":0.034917855488828344,"168":0.02251113339365116,"169":-0.1277106244894639,"170":-0.015470423036309236,"171":0.030544309640404138,"172":-0.14188929769263375,"173":-0.10886017785329538,"174":-0.053159921518483456,"175":0.09693344973771273,"176":-0.021179760346278338,"177":-0.0499518179005521,"178":-0.017683051828549144,"179":-0.14920199943260568,"180":-0.03501010662753717,"181":0.06747373871433894}},{"sx":1,"sy":1,"depth":182,"w":{"0":-0.08128142920498405,"1":0.19185372841966397,"2":0.06428806226296427,"3":0.01832389010472636,"4":-0.09870724292878288,"5":-0.08883123108885177,"6":-0.1401790586262941,"7":0.07436137851136504,"8":0.051306601969869664,"9":0.02640607563332913,"10":0.0012282727059974058,"11":-0.10545683472142602,"12":0.046803121734724604,"13":-0.028467388786777424,"14":-0.13261605158993503,"15":-0.036222909714218106,"16":-0.0004160607519020424,"17":0.13036090708074763,"18":-0.06825734207523901,"19":0.11270890243998406,"20":0.024365107491447446,"21":-0.03305989691023278,"22":0.053097828689546864,"23":0.013001791760945179,"24":-0.07086136718731405,"25":0.06494734494286926,"26":-0.051880845021791314,"27":0.15225871278227204,"28":0.0521236194863792,"29":0.04917402064830505,"30":-0.01559917267302256,"31":-0.21179321262813589,"32":0.08334639026160855,"33":0.07023796949810045,"34":-0.02132562872531064,"35":0.07519511129086458,"36":-0.11769147432825144,"37":0.12716794637145473,"38":0.11198992426026359,"39":0.04169586681773383,"40":0.06550209830501068,"41":0.06822455003920953,"42":-0.034815708012663524,"43":0.11504685285037249,"44":-0.08286604605748815,"45":-0.02196224300403939,"46":0.03256444821516935,"47":-0.00972040942496297,"48":-0.022941389140948416,"49":0.05404363293395294,"50":-0.053987668138618106,"51":-0.050719588541087206,"52":-0.002921792886196058,"53":0.07363697504443652,"54":-0.043931253605620016,"55":0.005435695269922202,"56":-0.07582982256903902,"57":-0.08606314917320942,"58":-0.03874542476888085,"59":0.05854036309564222,"60":0.058556556850022985,"61":-0.032076305265503174,"62":-0.033990242788341736,"63":-0.022884017545644994,"64":-0.050733718379465234,"65":0.011736440136140095,"66":-0.06925668549451812,"67":-0.00959899936405835,"68":0.004928512987885935,"69":0.05866692554419196,"70":-0.08991372939144329,"71":0.06587459812811149,"72":-0.024356751969731274,"73":-0.09682390423734119,"74":-0.15242296099786629,"75":-0.10575007037980345,"76":0.015114445517830312,"77":-0.11086624710585667,"78":-0.09852174535296324,"79":0.06237339111312039,"80":0.09182734394612842,"81":-0.04614275051881889,"82":-0.07873515214503149,"83":0.05252432214203628,"84":-0.1796281415545397,"85":0.026360897400345855,"86":0.002697942338949403,"87":0.05254856539336848,"88":-0.0024882875038797886,"89":-0.03546830940803663,"90":0.04975305531796253,"91":-0.012604354940827431,"92":-0.03218033466300727,"93":0.11427620838697304,"94":-0.023082492365999383,"95":0.0249462795692341,"96":-0.10843709809599866,"97":0.07625884803040867,"98":-0.09499480241105628,"99":-0.08519306048152299,"100":0.05360628695671009,"101":0.08842629265017288,"102":-0.014797922241910202,"103":0.14739043874160182,"104":-0.07342036529175922,"105":0.034659670001422206,"106":-0.06200475708228258,"107":0.0611235235691256,"108":0.13085667018747385,"109":-0.07809149302606307,"110":0.005642303925127526,"111":-0.0027298931595829833,"112":-0.053408425032226925,"113":-0.08025358012512382,"114":0.0138790591341649,"115":0.06048310455498431,"116":-0.014181712780312099,"117":0.00758431161660983,"118":-0.0007950883331387597,"119":-0.06698491646393641,"120":-0.024043760109440804,"121":-0.08593083811498471,"122":-0.21079280323767818,"123":0.07204092149728875,"124":0.1094033735160612,"125":0.05453925056139396,"126":-0.0457695400287455,"127":0.0509489445509304,"128":0.015743450771154945,"129":0.030035410883770427,"130":-0.09960777557811723,"131":-0.01334854162663753,"132":-0.040393554539911676,"133":0.03353040704973007,"134":0.05803944902810052,"135":0.05150019074257779,"136":-0.02087310211824886,"137":-0.05957418853066215,"138":0.008134781291061358,"139":0.019135175818630296,"140":0.1362583264233667,"141":0.027191880613297886,"142":-0.1440072789771262,"143":-0.09416268194757663,"144":-0.14713442378306832,"145":0.024663717205881713,"146":-0.005752646144971905,"147":-0.1030139180022193,"148":-0.03326646640510111,"149":0.01569004284338394,"150":-0.06713555886397748,"151":-0.08180066563583854,"152":-0.11484340890920625,"153":0.11643356895342169,"154":-0.043077913653582996,"155":0.07240761571203802,"156":0.016007562415594288,"157":-0.09186792215039827,"158":-0.03101046798730602,"159":-0.04402610779405958,"160":0.02622394080253412,"161":0.0009533820050286426,"162":-0.029523280428674106,"163":0.10121623676294703,"164":0.07729492884244561,"165":-0.01614976199752506,"166":0.035033029437507746,"167":0.11989424198457752,"168":-0.0029380637607328655,"169":0.1903007888982037,"170":0.010096164279773195,"171":-0.05674672936728645,"172":0.019834911433178445,"173":-0.08429150286220957,"174":0.13426879535041156,"175":-0.08974124582426576,"176":-0.12395734524812096,"177":-0.06119145100673067,"178":-0.22320852627357102,"179":-0.07552833838707651,"180":-0.13937599505027398,"181":-0.17151113021265804}},{"sx":1,"sy":1,"depth":182,"w":{"0":-0.00962196223779616,"1":0.015073913386660736,"2":-0.04166193556861474,"3":0.1453357576460579,"4":0.08280779114470817,"5":-0.03282445783088947,"6":-0.05186448114096356,"7":0.006594427056849397,"8":0.021284615340013663,"9":-0.001514434032714138,"10":0.011432092009275856,"11":-0.015232048431194667,"12":0.030499210744848935,"13":0.045551541099498855,"14":0.004098815070891268,"15":0.0970450814694354,"16":-0.0432475173966556,"17":-0.00023708942436844425,"18":-0.09007184442652556,"19":-0.03486737924923752,"20":-0.12305919551322698,"21":-0.09689865477917471,"22":-0.025666026862813985,"23":0.038072909442803435,"24":-0.027500669803681637,"25":-0.0073929738849048765,"26":-0.035884733052444065,"27":0.04370164251430658,"28":-0.02420940261836803,"29":-0.05352109955783057,"30":-0.06669236039942152,"31":-0.07176819703915559,"32":0.07325591727742348,"33":-0.03098236084718212,"34":-0.034847238061949774,"35":-0.026063021108585015,"36":0.09552256215713441,"37":0.05644410565496709,"38":0.08348612636934472,"39":0.06251813374619156,"40":0.04328985916967872,"41":-0.07036035341792472,"42":-0.1295823002511282,"43":0.01950924334522291,"44":-0.13970796968228158,"45":0.04298063291482395,"46":-0.021803548624728636,"47":-0.019887549071444927,"48":-0.0805813583933261,"49":-0.08640562653421192,"50":-0.07831194907218983,"51":-0.061918136808904706,"52":0.05374682701146901,"53":0.07562592113265795,"54":-0.09004377224364085,"55":-0.02467358538990697,"56":-0.0001506329066939185,"57":-0.07075007548252299,"58":0.021857340969138488,"59":0.11132703008035921,"60":-0.05164672654404317,"61":0.007985864287341117,"62":-0.0884983103658409,"63":0.15489359724443202,"64":-0.09552266156007934,"65":-0.005978034163629889,"66":-0.012441552581109622,"67":0.11751317375100673,"68":-0.021569199907163276,"69":0.0029432499160476355,"70":-0.0831758788309132,"71":0.012406836460936694,"72":0.04187617504221566,"73":0.035431002917062915,"74":0.10873169922934656,"75":-0.02646053693688733,"76":0.018635752605934645,"77":-0.03851057925812978,"78":-0.09850644913889581,"79":-0.02195813394689822,"80":0.026985204034088828,"81":0.08121128259641572,"82":-0.0980756613143935,"83":-0.04957409331021689,"84":0.033336772998941284,"85":-0.06800187277383056,"86":-0.08542835612294246,"87":0.11510825666397378,"88":-0.09731434219831005,"89":0.0769767148442262,"90":-0.05792123877515226,"91":0.0099160030296883,"92":0.0039276061213305265,"93":0.024877676806152712,"94":0.014278449812846318,"95":-0.0004821430750278351,"96":-0.035358420334926005,"97":-0.08936367435597488,"98":-0.08351878796467929,"99":0.0028983363452383896,"100":-0.0732816506599328,"101":-0.029960284480289354,"102":0.06862733535511081,"103":0.035641689637039536,"104":0.05502752346864875,"105":0.01704315066304169,"106":0.017506417206300695,"107":-0.0359394903306415,"108":0.09027395027629573,"109":0.0050095244137961445,"110":-0.15355018095942177,"111":0.04330778040073443,"112":-0.004541557270043501,"113":0.10895041052380243,"114":0.04061019483853327,"115":0.022434726974148243,"116":0.03355619869760291,"117":0.0034225557807359575,"118":-0.050041552252557006,"119":-0.032282898789815266,"120":-0.011870677422495436,"121":-0.012790004089925882,"122":0.10046133434776346,"123":-0.07379244954160283,"124":0.01824769785034871,"125":-0.12961474972030593,"126":0.04221069887029727,"127":0.02889854510828661,"128":-0.00859331103581966,"129":-0.02951417491842825,"130":0.08985965651771335,"131":-0.0908872829590252,"132":-0.15049641866420135,"133":0.01864438419308361,"134":0.041609653351811667,"135":-0.043101914117710506,"136":0.04311274543193332,"137":0.06427818736724718,"138":-0.08364368444682607,"139":0.07690538123777188,"140":-0.12127445020499919,"141":0.0009043397119651281,"142":0.10843159945190266,"143":0.04676574974648846,"144":0.04808456203537512,"145":-0.050452569492978376,"146":-0.10909353458646336,"147":-0.035287261553154876,"148":0.09836143215374034,"149":-0.09127047093814676,"150":-0.24201657853466002,"151":-0.07398738158037642,"152":0.06586600290402632,"153":-0.12752591395633667,"154":0.03550827755942889,"155":-0.004979900393850127,"156":0.07815212884871621,"157":0.040301063901377485,"158":0.0474473552683133,"159":0.13394937076727154,"160":-0.025453184195339262,"161":-0.021532820017170086,"162":-0.029845072898540517,"163":0.1349454677519299,"164":-0.014354430705505959,"165":0.0796632117604783,"166":0.022127024864095655,"167":-0.14470550538990734,"168":-0.008517567512520424,"169":0.10767782059794069,"170":0.01144605212234851,"171":0.01487408273588921,"172":-0.01363756205881957,"173":0.02831535730371857,"174":0.03307877853800038,"175":-0.0714807418193717,"176":-0.06308284608377704,"177":-0.049627174501864345,"178":-0.08135295254673626,"179":0.019368888188459672,"180":-0.02701518709719519,"181":-0.03328451239956043}},{"sx":1,"sy":1,"depth":182,"w":{"0":-0.026660063487433525,"1":-0.09170426838289465,"2":-0.07365214319178688,"3":-0.04637480488795084,"4":0.0005029744045531632,"5":-0.10145744663358583,"6":-0.07506342581572191,"7":-0.1327293382576615,"8":-0.10422488846261878,"9":-0.049910959202477685,"10":-0.0036389294888104352,"11":-0.006932422861401535,"12":0.017672863747992037,"13":0.14027722341166093,"14":0.08163016159116768,"15":0.11311890206118244,"16":-0.04659930007160613,"17":0.16684268094846666,"18":-0.05950593402585551,"19":-0.07015853266662084,"20":0.12802433484920273,"21":0.06286735606737942,"22":0.1266655531213621,"23":-0.11598877907428368,"24":-0.04139670320547777,"25":0.037232520537380895,"26":0.03920555934210707,"27":0.0687790687410222,"28":0.052296253760929536,"29":0.037850087623006776,"30":0.15390442809722157,"31":0.05707102105220948,"32":-0.05787274067613657,"33":0.033640982703237454,"34":-0.18147716322309496,"35":-0.09128168842590681,"36":0.027005306250811104,"37":-0.04185708561974509,"38":0.012078754652525529,"39":-0.04060385663556155,"40":0.08357896689331958,"41":-0.06795042861456363,"42":0.024795775324487148,"43":-0.25055671609980523,"44":-0.02280683769316913,"45":-0.028925703820566147,"46":-0.05009130415520144,"47":-0.09556261747206635,"48":-0.03426124594659055,"49":0.029501973796035922,"50":0.0025643556011438256,"51":0.12121100682510913,"52":0.018403550582477484,"53":-0.08545420026642976,"54":-0.0015103246929488586,"55":-0.12440934661258919,"56":-0.005059625377944205,"57":0.09100698869010106,"58":-0.04807182093494715,"59":0.058473615094151776,"60":0.0408302067652356,"61":-0.02182801398293094,"62":-0.13477292250130607,"63":0.09567680306507294,"64":0.013774227890637897,"65":-0.07381421024159458,"66":-0.13266888923359366,"67":-0.0035036684327244567,"68":-0.08658281151502023,"69":-0.07868199051229945,"70":-0.06809012398260283,"71":0.02037759817539838,"72":0.045058370948003926,"73":0.0329049073293178,"74":-0.0047442065499580304,"75":0.04541589155912729,"76":0.04754037734498451,"77":-0.07192641768933582,"78":-0.013823545086740475,"79":-0.07213365479002691,"80":-0.027958052951785977,"81":-0.10179920094563026,"82":-0.004525450513953341,"83":-0.11710352524430792,"84":0.028798908054481452,"85":-0.18265837194424994,"86":0.18230572075099374,"87":0.03606488104694893,"88":-0.005722165850901005,"89":0.061258639530830834,"90":0.05619298665368535,"91":0.10481616164739756,"92":-0.0039012107291358502,"93":-0.05142589861206532,"94":0.1812503523482616,"95":0.13268357466334008,"96":0.05322457176740704,"97":0.04268450262247338,"98":0.04411090968071347,"99":0.034427414851742937,"100":-0.03774592773951978,"101":-0.05221309725526538,"102":-0.15089088191543587,"103":-0.10639413097845368,"104":-0.015858171004481968,"105":0.019747695454377382,"106":0.04752237364004626,"107":-0.041816619012026865,"108":-0.13448335311420268,"109":-0.08219478694152435,"110":-0.04791093663604687,"111":0.12470295855961569,"112":-0.09906420182715985,"113":-0.06088310225164797,"114":-0.08746431242664264,"115":0.023943132659760183,"116":-0.07046205806012582,"117":-0.01400363688188947,"118":0.15122111030281413,"119":0.1275862558465924,"120":0.03045984276055935,"121":0.1767470698497873,"122":0.07866478527548086,"123":0.057069299993577266,"124":-0.006178543637025764,"125":-0.0965890295343433,"126":-0.01715904010537915,"127":0.040768318234412265,"128":0.03716389296790551,"129":0.023872568059979588,"130":0.014939349492370777,"131":-0.03633023289894141,"132":-0.07693672893637868,"133":-0.0002357937085200826,"134":0.013740647907682998,"135":-0.02527243358389865,"136":-0.008157328865770195,"137":0.10104101864452684,"138":0.09559575337697947,"139":-0.11148115381910408,"140":0.029208453497654226,"141":0.09131533476178397,"142":-0.09667087878126558,"143":-0.06369207874322808,"144":-0.03382621617898205,"145":-0.1056361153533941,"146":0.08678816986409026,"147":-0.027732782995944994,"148":-0.02819688225881695,"149":0.04113636203041677,"150":0.01011334152785131,"151":0.07412933961807307,"152":-0.05338259328002908,"153":0.020876284375652438,"154":-0.025435799679934475,"155":-0.04243803556648522,"156":-0.15147588449208885,"157":0.10212607040034212,"158":-0.11403953941272599,"159":-0.15703595819893015,"160":-0.04511612108771005,"161":-0.026053828142968694,"162":0.061632800884146806,"163":-0.019886450456645353,"164":0.017880099460123092,"165":-0.03081718577704443,"166":-0.08858930121333031,"167":-0.0911264644853032,"168":0.06989190626496139,"169":0.05807077043550173,"170":-0.010896317697668545,"171":0.0032582278586801555,"172":0.10025447776333012,"173":-0.0612683326765227,"174":-0.02302475573353106,"175":0.02408974519079952,"176":0.041872445439593425,"177":0.08256204772572451,"178":0.05608532825106168,"179":0.15157885132032808,"180":-0.027715898747655284,"181":0.08033757780956789}},{"sx":1,"sy":1,"depth":182,"w":{"0":0.06790097972943529,"1":-0.049493294602937464,"2":-0.01859071340033461,"3":-0.07273099846233898,"4":-0.0061594470391676,"5":0.07837371193789708,"6":-0.03320666357520305,"7":-0.049833590477487595,"8":-0.021823802425142532,"9":-0.035228214132251925,"10":0.04683659638721508,"11":0.002487484898012293,"12":0.0026170687514055855,"13":-0.005075514250615269,"14":0.13425470020277921,"15":0.0550892521159331,"16":0.00599149109563654,"17":-0.02734942972843417,"18":0.17109862394289757,"19":-0.03516502455710476,"20":-0.019795448162938906,"21":0.03231876536461789,"22":-0.03748041329131567,"23":0.007380037242305843,"24":-0.04997633052699913,"25":0.09096814152027573,"26":0.05766008553854053,"27":-0.023356798760979486,"28":-0.08062138304156487,"29":0.01062122467753404,"30":0.05179518416356387,"31":-0.020382631343575083,"32":-0.022508765145171823,"33":-0.06296426358380751,"34":0.07073308699297459,"35":0.09976411920474067,"36":-0.1470214263749352,"37":-0.041102596934994975,"38":0.010685466849086271,"39":0.05771950172876551,"40":0.03134791229595795,"41":-0.047754014288283776,"42":-0.159422047913087,"43":-0.13285449974688,"44":-0.013866114592548858,"45":0.09573459749487394,"46":-0.006105121242102961,"47":0.030374354619317957,"48":-0.12002545731775485,"49":-0.11146982997247343,"50":-0.12198461337238846,"51":0.0019374425742628312,"52":-0.08028346516005466,"53":0.07957908020213286,"54":-0.15786808627605858,"55":0.1729181032729461,"56":-0.004902744111936133,"57":0.011124035844711787,"58":-0.043121731100125904,"59":-0.17197885976558502,"60":0.08858478879219725,"61":-0.08390781207465134,"62":0.035693327703861,"63":0.04892733860396312,"64":-0.06602064299628702,"65":0.03147331518043158,"66":-0.14594945018006994,"67":-0.11059335852533969,"68":0.0376670741044997,"69":-0.04212463365397341,"70":-0.0408647398688847,"71":-0.06013626181126341,"72":0.0005794905755841608,"73":-0.038639040554732725,"74":0.01556114977845004,"75":-0.010878475212891349,"76":0.06286709689083124,"77":0.041075137339714476,"78":0.06847644072895942,"79":-0.10831050399737426,"80":-0.020188480437215987,"81":-0.059986977196515155,"82":-0.0550128793081269,"83":-0.006738283214832379,"84":0.07654331255076602,"85":-0.10967091317727669,"86":-0.15048770792773097,"87":-0.17476775583937815,"88":-0.07813436752203512,"89":-0.12343582764941433,"90":-0.001642602638757303,"91":0.061979396444083346,"92":-0.09048664170498077,"93":0.09990074901358324,"94":0.08598719983118219,"95":0.016876593532709323,"96":0.03225479925604475,"97":-0.08596627872715853,"98":-0.012784606703148543,"99":0.0002826580815705564,"100":0.05775580060609546,"101":-0.05198044607126666,"102":-0.03805089180421622,"103":-0.010923039279851936,"104":-0.055962655999761315,"105":-0.0397199607127018,"106":0.05856148656361883,"107":-0.00822448659561885,"108":0.014429397874829001,"109":0.05007151046053818,"110":-0.027544222912543312,"111":0.027980285476172883,"112":-0.020953960341910802,"113":0.14257053089949948,"114":0.00592344093841651,"115":-0.033011498489324075,"116":0.09039857955164823,"117":-0.020386467429810626,"118":-0.008992987096644945,"119":0.05821695032486155,"120":-0.07041393624949005,"121":0.07220635599587563,"122":0.15414651190140946,"123":-0.05684879261543881,"124":0.10479982520400455,"125":-0.08314383762187282,"126":-0.038169568972732666,"127":-0.03470826418252303,"128":0.013429375247031413,"129":0.011568377398636781,"130":-0.00020849050387544292,"131":0.11614300476816726,"132":0.008810636451873653,"133":-0.04774945969724535,"134":-0.007961987569132224,"135":-0.011238297658386617,"136":0.0034891496077992497,"137":-0.06635554533474808,"138":-0.09161608774543696,"139":-0.13855471756742668,"140":-0.07526319129198769,"141":0.06457095842211698,"142":0.023134779376306397,"143":-0.0012685751750534707,"144":-0.05684420961483856,"145":-0.002196596246195774,"146":0.0684973372026418,"147":0.12035736879954718,"148":0.10199622904364959,"149":-0.03729833864170164,"150":-0.09535018879150337,"151":0.06449053857146866,"152":0.06541766309430423,"153":0.13356585188694234,"154":0.01878612007620777,"155":-0.04906764596932055,"156":-0.012897053935017418,"157":0.12106065467681423,"158":-0.15127004190244125,"159":0.18572921252162408,"160":-0.07944165493892391,"161":-0.01022708561010479,"162":-0.05884261387796453,"163":-0.05850917468791382,"164":0.002876419868868997,"165":-0.036974855399440426,"166":-0.09861374129043589,"167":0.0369795080885646,"168":0.12825020049736938,"169":0.07896064520148575,"170":-0.020755549486098306,"171":-0.14359481787649783,"172":-0.01309728122259916,"173":0.049148786956136926,"174":-0.13541533665901004,"175":-0.04101416076956973,"176":0.014944828337339518,"177":0.057657571668589036,"178":0.09053556673666392,"179":-0.05463046610457022,"180":0.01979833017071624,"181":0.08096775472480701}},{"sx":1,"sy":1,"depth":182,"w":{"0":0.0415706738546206,"1":0.02422194787785382,"2":-0.0652022484942181,"3":-0.03016171652280774,"4":-0.1254961186277518,"5":-0.02722965263582067,"6":-0.028111393611261956,"7":-0.03903504004913204,"8":-0.05072193679697821,"9":0.02145231128501877,"10":-0.059420756835020176,"11":-0.021067712061359316,"12":-0.09652049943188529,"13":-0.06653141958564536,"14":0.026526125230792123,"15":-0.0023580659359476877,"16":-0.035795295366883896,"17":0.07546932852901998,"18":-0.0277143185509201,"19":-0.07207334605404331,"20":-0.05607734119139083,"21":-0.00009885603538741434,"22":0.05353480075103271,"23":-0.07719702653479875,"24":-0.053412500627544816,"25":0.09454178571725186,"26":-0.08560075677590864,"27":-0.044944422641761114,"28":0.004125920687929628,"29":-0.06542994035923541,"30":-0.05201748991322276,"31":-0.010178501242491112,"32":-0.004743932560068561,"33":-0.09925243847693026,"34":0.05241061980241037,"35":0.04019094919239352,"36":-0.0418016388015703,"37":-0.04329153566012876,"38":0.012881170421721745,"39":0.05169552227092667,"40":0.06659470777300691,"41":0.017821155563547384,"42":0.11291130449097235,"43":0.03748015786175937,"44":-0.0056732635798600155,"45":-0.09671093295867558,"46":0.06001788211061328,"47":0.013545278570293466,"48":-0.048718120769632126,"49":0.06248315354676767,"50":-0.012183754720320291,"51":-0.15475267188370476,"52":0.03462366366954331,"53":-0.00023452738063875676,"54":-0.10379177288964875,"55":0.02643128853780188,"56":-0.012256233788093037,"57":0.0063383032226847266,"58":0.02727014190136817,"59":-0.016278506652176346,"60":0.045306034304495264,"61":-0.13398129911259954,"62":0.0643358668180703,"63":-0.09372189562411735,"64":-0.049868050223265466,"65":0.025325129054981577,"66":-0.06397636298663494,"67":0.04364040790689891,"68":0.0732329947101464,"69":0.06753459257256955,"70":-0.1287249519137516,"71":0.11491397874172157,"72":-0.04377082968352608,"73":0.04054002577870264,"74":-0.0718564692487278,"75":0.09603592275861544,"76":0.033461628201911696,"77":-0.04702267058507768,"78":-0.0014361197391806455,"79":-0.12122684025666024,"80":0.02650306213995269,"81":-0.07657819587493013,"82":-0.04960484783965875,"83":-0.03697366874956049,"84":-0.11309647231711793,"85":0.09433008605138027,"86":-0.06607839748756332,"87":0.003636041936225077,"88":-0.15260736423863477,"89":0.18856453735610113,"90":0.04136839680929909,"91":-0.0866787235462045,"92":0.05757434367186597,"93":0.06886798745806756,"94":-0.010761762494642503,"95":-0.04915077807947558,"96":-0.11433748779496826,"97":-0.08792138433997271,"98":0.0012190353440457741,"99":0.06306496136173345,"100":-0.0012495731454096276,"101":0.004426249583311468,"102":-0.07133379447827148,"103":0.09605096058797662,"104":-0.06390078870592895,"105":0.03763151275494102,"106":-0.19044307189523468,"107":-0.06336224526858032,"108":0.00872717315769479,"109":0.12519166904745024,"110":0.16704994987256663,"111":-0.003904740388977247,"112":-0.05559891482500139,"113":-0.05552215107330431,"114":-0.04893826493054364,"115":-0.06944236319683685,"116":-0.1721100654329056,"117":0.000501222638271887,"118":-0.05408014719749562,"119":-0.09987794477650644,"120":0.01428803999181714,"121":-0.11646358757210748,"122":-0.006389232005781744,"123":-0.06976713100805068,"124":-0.14627326767098037,"125":0.018214867099469408,"126":-0.08392061253295523,"127":0.04102776985607232,"128":0.0316249254714285,"129":-0.007618258824522055,"130":-0.00957945150699824,"131":0.11944153567688592,"132":0.031004316740502712,"133":0.06525770601989674,"134":-0.06932280775894183,"135":-0.013120075697948796,"136":-0.02188020661627734,"137":-0.06345502689743754,"138":0.09803415918636314,"139":-0.02740780970749636,"140":0.05051911217717616,"141":0.035655368712361676,"142":0.07286436946799156,"143":-0.05291592010548355,"144":-0.08259266498710403,"145":0.058939017400729446,"146":0.049772651528534814,"147":0.0015934475167984075,"148":-0.1724351547520583,"149":-0.1769693532116471,"150":-0.07826199655286413,"151":-0.03201135602264559,"152":0.11975783995506456,"153":-0.03782502068999057,"154":-0.0424374796867384,"155":0.07026477505936458,"156":0.009432363537298207,"157":-0.018148544713432854,"158":0.2517174830460681,"159":0.002442390464896786,"160":-0.08287807875893134,"161":0.09941454435398972,"162":-0.026166718929152823,"163":0.07550976806947443,"164":-0.15209837388647054,"165":0.0029274793706246284,"166":-0.05128433499711848,"167":-0.03562659066998488,"168":-0.014792456646835721,"169":0.11565610631968644,"170":-0.04146323372823799,"171":0.06400629061691766,"172":0.0065622923165473595,"173":-0.018818012667627823,"174":-0.011888620577387397,"175":0.11018474104749167,"176":0.004195488879542778,"177":-0.0038743264307016904,"178":0.09297706163694897,"179":-0.013767262775023945,"180":-0.0203998997805998,"181":-0.039904470351597984}},{"sx":1,"sy":1,"depth":182,"w":{"0":-0.05933614652356486,"1":0.037460256822003025,"2":-0.044119664834308035,"3":-0.03519741454299934,"4":-0.07311504829038488,"5":0.06316464171125102,"6":0.6572061243962672,"7":-0.007726447958553019,"8":-0.13623920086609562,"9":-0.2335999376310784,"10":-0.15607211680717953,"11":0.014174695940078407,"12":0.09468151231833019,"13":0.0014070606590335275,"14":-0.028304947254794238,"15":-0.05702307409863876,"16":0.023083192027159655,"17":-0.05550180484327487,"18":-0.029828026003464108,"19":0.16587211573705668,"20":0.10868451175635782,"21":-0.08519830415785504,"22":-0.11758058258137058,"23":-0.0327251281049056,"24":0.022384746255938053,"25":-0.09424735104534994,"26":0.12441471470972792,"27":0.01598823281132518,"28":-0.03908553021389906,"29":-0.13658582707069072,"30":0.016397247787416563,"31":-0.014571927194878237,"32":0.05565038434098837,"33":-0.0720244728351743,"34":0.03607705359594978,"35":-0.16065327649998415,"36":0.001092121322157983,"37":-0.07208787269054777,"38":0.04020355829351002,"39":0.03843251385469953,"40":-0.03248011643294264,"41":-0.047168720082095404,"42":-0.06565637410092941,"43":0.10568377059101765,"44":0.07706907225015973,"45":0.11490886074478777,"46":0.1746607903897735,"47":-0.13297060239373204,"48":-0.05507794512150284,"49":0.025313233682057863,"50":-0.008469029085800968,"51":-0.004818945389851222,"52":0.14211359864242798,"53":0.02556112725387603,"54":-0.010910203321302145,"55":-0.15662256796959081,"56":0.005253553579774318,"57":0.16949723945523615,"58":0.5193103044375885,"59":-0.03536938899429998,"60":0.0002727042420879968,"61":-0.1585321492099385,"62":-0.057158631438061575,"63":0.02817804667005824,"64":-0.018385611688833958,"65":-0.09773694987427275,"66":-0.007998953410990349,"67":0.051589688546643316,"68":-0.07236428814615617,"69":-0.14576239312800787,"70":0.04421006489251288,"71":0.3147393667409607,"72":-0.06595838439673339,"73":-0.05724903117269045,"74":-0.0617040252876182,"75":0.04878473771893659,"76":-0.027170848419769213,"77":0.11983470170360572,"78":-0.05339397878896227,"79":-0.04607877024785725,"80":-0.002728318567780429,"81":-0.019151452436331436,"82":-0.07816860325038821,"83":0.0356150594702713,"84":0.23763401671873127,"85":-0.11132731477868703,"86":-0.003757227472485079,"87":0.002280947079876947,"88":-0.11902331211936189,"89":-0.09843183734158319,"90":0.07671655699066245,"91":-0.03023484440553891,"92":0.11592091847392373,"93":-0.12074546726220303,"94":-0.021386002410249804,"95":-0.1916582062142954,"96":-0.0025004703791427496,"97":0.2515400927218364,"98":-0.08143876055099256,"99":-0.07267745259972744,"100":-0.08064703814737631,"101":0.03912669116649164,"102":-0.045671408122501436,"103":-0.0062427156034922885,"104":0.051227319314007314,"105":0.05192946149478162,"106":0.05400423350201842,"107":-0.02166903205497786,"108":-0.04806376781077005,"109":-0.06261177410944775,"110":-0.3118550038328152,"111":-0.1257317286658942,"112":-0.1368335122351892,"113":-0.14595242532916983,"114":-0.12857867848108054,"115":-0.04558430057452825,"116":-0.003877679553954562,"117":0.15274501651708805,"118":0.03570419353002042,"119":-0.04958164976309724,"120":0.026500107530855525,"121":-0.11321690854430874,"122":0.12639566774451394,"123":-0.5012749025256563,"124":-0.12141806690094857,"125":-0.0839610778279284,"126":-0.1721735644698727,"127":-0.060459508587257904,"128":-0.002307161664846293,"129":-0.07456001562502963,"130":-0.07668033944049614,"131":0.08796787752732015,"132":-0.06886547619903141,"133":0.052307693803478245,"134":-0.028513789000657184,"135":-0.07580054065229189,"136":-0.4274495385338533,"137":-0.22770327587606262,"138":-0.05427585362955114,"139":-0.007135940148574412,"140":-0.12243827310912864,"141":0.01044700520837745,"142":-0.09927572434804528,"143":0.05363694645633735,"144":0.11585931435258395,"145":-0.07105484370581686,"146":0.027685936311480478,"147":0.014137401497964757,"148":-0.042916891761915106,"149":-0.5295030609692795,"150":-0.24796133643210735,"151":-0.12246927424196218,"152":0.009637919694616498,"153":-0.16589054269677597,"154":-0.07031633931004158,"155":0.04687169638023803,"156":0.0911938510353124,"157":0.12588010175071085,"158":-0.04674952432524761,"159":-0.2305864326562867,"160":-0.1681263130537505,"161":0.012217802451370843,"162":0.5583967555908927,"163":-0.40334756367885016,"164":-0.12298113379786534,"165":-0.046173738463628364,"166":0.04848158770370762,"167":0.006391171926581848,"168":0.05286838735956305,"169":0.05806142004711817,"170":-0.009176000754865247,"171":-0.11138618523774266,"172":0.022750405220291692,"173":-0.06930257008408652,"174":0.029843690340026607,"175":0.6048323571060333,"176":-0.517976457753392,"177":-0.15722656846420302,"178":-0.04855064665031121,"179":0.017152084450335787,"180":-0.14086224877507808,"181":-0.0005595495575585933}},{"sx":1,"sy":1,"depth":182,"w":{"0":0.016948787931763083,"1":0.12529245920253596,"2":0.08099284231153048,"3":0.017226845400777357,"4":0.13710970368166014,"5":-0.0020249726815424504,"6":-0.40627229781532115,"7":-0.14352531869764776,"8":0.047701884955988656,"9":0.051534021389553604,"10":0.032330873967016206,"11":0.08925867191887156,"12":-0.08076798689885886,"13":-0.049061216985034996,"14":0.037463634202406296,"15":0.04043236568982171,"16":-0.0352648199914945,"17":0.03182203734165525,"18":0.057034985086226946,"19":-0.19954912604666813,"20":-0.2738834978567424,"21":-0.11257710899798497,"22":0.019149253506824202,"23":0.020639700248754254,"24":0.03697174221748072,"25":-0.1402383824453484,"26":0.014388267741667385,"27":-0.07118026801162398,"28":0.0808081512661017,"29":0.0052079265328422615,"30":0.061988182332100274,"31":-0.024096490072465834,"32":-0.14212881786926893,"33":-0.005392178715862243,"34":0.007471655514518719,"35":0.09415016278654535,"36":-0.001999633970319369,"37":0.00949098108873833,"38":-0.04764776368655256,"39":-0.000047633869118875226,"40":0.06560634247454361,"41":0.034893410532677784,"42":-0.014017906209940246,"43":0.012719793683136,"44":-0.08795422767897254,"45":-0.054107709223887704,"46":-0.08823198294168473,"47":-0.021243663653136863,"48":0.06060992686151293,"49":-0.05949737846810124,"50":-0.01777349307133153,"51":-0.08008277617591032,"52":-0.03635798696262289,"53":-0.04975054867474497,"54":0.018178093855672865,"55":-0.05754397659593847,"56":0.003097287877807683,"57":-0.04419733323842555,"58":-0.3074480025816469,"59":-0.06483913911964471,"60":0.03491468013194468,"61":0.06496009686025746,"62":0.0055724453425435635,"63":-0.09390974040847219,"64":0.05833320526960955,"65":0.011342172998009995,"66":0.09524155225381178,"67":0.13037924810554366,"68":0.09576494679240229,"69":-0.0796789145782993,"70":-0.1199211177772741,"71":-0.17566936899058838,"72":-0.09943140675949134,"73":-0.009248225094475229,"74":0.1349000101226139,"75":0.005394152443056747,"76":-0.05230661380947779,"77":0.013665817188866952,"78":-0.09601227676972647,"79":0.09113694158771707,"80":0.05546220982793864,"81":0.01367231350900244,"82":-0.049081614644582446,"83":-0.1135105265032767,"84":-0.2293319188161752,"85":0.013091043620208803,"86":-0.1567350415522924,"87":0.03431961313034645,"88":-0.04825185712975177,"89":-0.05402455883920602,"90":0.006894659388104019,"91":0.010074276300086739,"92":-0.07051019978184034,"93":-0.003213678613931471,"94":0.020824044562294475,"95":0.020201441776890736,"96":-0.11499521341538947,"97":-0.08498242918321923,"98":0.13424178848714527,"99":0.036980802001167615,"100":-0.0038362317378143997,"101":-0.026071113331423486,"102":-0.12407984331090334,"103":-0.11445766458389915,"104":0.06481555256493436,"105":0.010819651678573535,"106":0.12037590773713495,"107":0.04007486826467542,"108":0.014065372366172217,"109":-0.15902668817665255,"110":0.4547393883111629,"111":0.09088482075320423,"112":0.01992975184908713,"113":0.05407133806461233,"114":-0.024923432831410908,"115":0.04525670504888125,"116":0.002382714023399508,"117":-0.07782891104513433,"118":-0.1130431330121505,"119":0.08232852579465809,"120":0.030086834281019024,"121":0.05166592016801279,"122":-0.173046741165926,"123":0.6152272472992559,"124":0.22831832629643242,"125":0.10904571990350945,"126":0.14005741165707858,"127":0.02556004674699614,"128":-0.07572197344844601,"129":-0.05080893178828544,"130":0.08673030026152782,"131":0.059305047833884385,"132":0.027628577221146883,"133":0.03958315598836877,"134":-0.09639122758817113,"135":-0.08254124215502077,"136":0.43583015892603577,"137":0.12240747509183053,"138":0.14152276043075254,"139":0.11795809377486736,"140":0.08583457446018225,"141":-0.06561663853950273,"142":0.05714084286467251,"143":0.04054946249676478,"144":0.038275971363856846,"145":0.06632759958346589,"146":0.018928215367453878,"147":0.06945817871814645,"148":-0.06148384694138259,"149":0.17193934863179797,"150":0.08398094269880392,"151":-0.08125087648617668,"152":-0.038120816530195625,"153":-0.1209953688915345,"154":-0.0372012069392399,"155":-0.10659544711445362,"156":-0.05878888166058186,"157":-0.033606529969834716,"158":0.05222498101650128,"159":0.021356997051012145,"160":-0.05404169791518253,"161":-0.08258679800764647,"162":0.12224499949553044,"163":0.15087211024337238,"164":0.05976694034586617,"165":-0.003341304906297515,"166":-0.10191006711538893,"167":0.04018709065616124,"168":0.011836339704597278,"169":0.05394717258490607,"170":-0.08720174706961652,"171":-0.07879183050607415,"172":0.07366883164092894,"173":-0.09076936843491135,"174":-0.0744152020141917,"175":0.05445793310864781,"176":0.11253137565419008,"177":0.005800597340326695,"178":0.06333320009032806,"179":0.031209501293852963,"180":-0.054904454655397394,"181":-0.04254617008152926}},{"sx":1,"sy":1,"depth":182,"w":{"0":0.019168450171492137,"1":-0.0679440857036961,"2":0.05659000269741457,"3":0.0019980806951325272,"4":0.07913304625957637,"5":-0.0008679145517717603,"6":0.04390919757965264,"7":0.005610354906919803,"8":-0.06376712892763171,"9":-0.14167313631100065,"10":0.11530042515530103,"11":0.059896877764360326,"12":0.00822362789930416,"13":0.10042116706057418,"14":0.04738189383999092,"15":0.057507055954485596,"16":-0.0062829882242404385,"17":0.0019322307770985154,"18":-0.05063900130241359,"19":0.18681545818646897,"20":-0.10399107625289386,"21":-0.048344180198697566,"22":0.06554196813532785,"23":-0.15939222228673885,"24":0.013294058112158851,"25":0.060543056839226624,"26":-0.05040163368149837,"27":-0.05104246914754683,"28":0.002059768156255552,"29":-0.06122331586115902,"30":0.0714662009826175,"31":-0.05147171089653344,"32":0.04622257820293932,"33":0.03235701583995643,"34":0.0382819537516318,"35":-0.03163907505223745,"36":0.012597272846365323,"37":-0.01724061642762213,"38":-0.09822178723379842,"39":-0.037401624418290064,"40":-0.0705308856923613,"41":-0.08377255607946794,"42":-0.10930056200312771,"43":-0.046230431436664006,"44":0.07210652852372612,"45":-0.03542081501708399,"46":0.021971870325989313,"47":0.052219907026795465,"48":0.045222878402624886,"49":0.03948261870617823,"50":0.08343593779029915,"51":-0.05027883944089434,"52":0.026939390531610586,"53":-0.004901536960410867,"54":0.06614131787411519,"55":-0.03663403503108648,"56":0.01572502607465622,"57":-0.08951355092626573,"58":-0.04748839446394576,"59":0.03792234496890527,"60":-0.02967260073386794,"61":-0.005879062871727524,"62":0.015151334896276382,"63":0.04720808122977193,"64":-0.06430805659164593,"65":-0.02252778078206412,"66":0.009661646151994352,"67":0.07061064215414171,"68":0.04962866295695963,"69":0.07681834200414353,"70":0.00287248691086408,"71":-0.002727623106732274,"72":-0.016386468432249977,"73":-0.1628295028606131,"74":0.08366920737595183,"75":0.012215611880087678,"76":0.05854495574734035,"77":0.07671165438336178,"78":-0.031145247900658205,"79":0.07386336064724788,"80":0.006328172378235704,"81":0.10928706637529469,"82":-0.05510600023928473,"83":0.13688763561857023,"84":0.04040058481686563,"85":-0.07326108575939178,"86":0.10754391845027723,"87":-0.14338369005817006,"88":0.10595354788012709,"89":-0.06740727076862306,"90":0.06815889310263025,"91":-0.11758294591944145,"92":0.05107293614514661,"93":-0.08071120044892265,"94":0.13798222309665195,"95":0.0007844965986186564,"96":0.15350237297038036,"97":0.09734569669873075,"98":-0.13693917530059818,"99":-0.13228946480435044,"100":0.020919204458733368,"101":-0.1136515732932449,"102":0.038341256772331286,"103":-0.0306521037718397,"104":0.1350593170710541,"105":0.004675456398983525,"106":0.07792803434131704,"107":0.09453434654825967,"108":0.019161809783685153,"109":0.06070189316698254,"110":0.16619702436088413,"111":-0.18873036877321214,"112":0.07327362020065725,"113":0.07379982333854024,"114":0.0626820842924457,"115":-0.04857235058104396,"116":0.12983412354165108,"117":-0.041855318692416064,"118":-0.0035669087117899258,"119":0.08672487208284849,"120":-0.06915548726092703,"121":0.0856537518120096,"122":0.08369258467108302,"123":0.2497584361517583,"124":-0.27536540948591987,"125":-0.07256216927322895,"126":0.008221157231880835,"127":-0.023692831273451693,"128":0.10384422524710453,"129":0.13761415530547358,"130":-0.025215347546478813,"131":0.009660246399251782,"132":-0.16509349494971012,"133":-0.0012834994157677076,"134":0.13144017679063413,"135":0.10322608752024655,"136":0.1999452107643117,"137":-0.10775801557354957,"138":0.05668798100949749,"139":0.058844209149717955,"140":0.017314038802242006,"141":-0.04911755614041081,"142":0.12582969482128709,"143":0.04523614801507304,"144":-0.0068191202351743675,"145":0.005656940543481727,"146":0.1543223434151563,"147":-0.010350035803895449,"148":-0.06546863776673988,"149":0.12598594544819744,"150":-0.09658077329743178,"151":-0.05066359109703561,"152":0.08882624600939117,"153":-0.09706860279292356,"154":-0.018978303135921443,"155":0.07633573550303249,"156":-0.061887029848727675,"157":0.041895228647283914,"158":-0.028625433218787178,"159":-0.00857812157507116,"160":0.0853978056832072,"161":0.016802332908351394,"162":0.13422076296271382,"163":-0.08516021758455639,"164":-0.09449175501943105,"165":0.028680075248818816,"166":-0.049392765863965606,"167":0.08229354455017099,"168":0.010609301847294063,"169":0.1202191021005776,"170":0.002453865010213692,"171":0.006505081446020769,"172":0.008672816693914658,"173":0.03903008697447119,"174":0.02814989392077434,"175":-0.13166194197984618,"176":-0.21394810194819458,"177":0.014086356771980084,"178":0.11478947364128755,"179":0.04290488952252054,"180":0.12355888897882981,"181":0.07443429039399468}},{"sx":1,"sy":1,"depth":182,"w":{"0":0.1117329152928277,"1":-0.026658592973867412,"2":-0.1714423974387187,"3":0.03790442558211124,"4":0.10761102422831312,"5":0.14019574884914932,"6":0.10700101826463373,"7":0.05646713769537091,"8":-0.014935723996705074,"9":0.029913390643244418,"10":0.010584145422152351,"11":-0.08976798127434762,"12":-0.0783146815137978,"13":0.05876376548881296,"14":0.10742836342385545,"15":-0.11060460150114301,"16":-0.029449944695202374,"17":-0.0012526694060319252,"18":0.05184064423577419,"19":-0.08072756194534632,"20":-0.04534380230217184,"21":0.09528670348950856,"22":0.014674811174271411,"23":0.11579868427421339,"24":-0.06781517801492269,"25":-0.05375461608026019,"26":-0.030827701753583084,"27":0.02027983460904348,"28":0.003911236261884269,"29":-0.043529083197887716,"30":0.08344722033953283,"31":0.024406579801284276,"32":-0.0589794359948215,"33":0.053605008751765666,"34":0.027371341602686717,"35":-0.0659638744329271,"36":0.03766247786733885,"37":0.11467429540224126,"38":-0.014801377866707405,"39":0.1571714436153601,"40":0.020065834266694234,"41":-0.12154103893182007,"42":-0.01215967258275133,"43":-0.05625059429171707,"44":-0.06230247362180053,"45":0.00692843674381882,"46":-0.03390892127961618,"47":0.10950723999003494,"48":-0.046375034195577126,"49":0.112044111173592,"50":-0.07876737861646371,"51":-0.06755645572566596,"52":0.044895651416160594,"53":0.01460661252153045,"54":-0.022747489375322484,"55":-0.09420199598052954,"56":0.09276572278416378,"57":0.0051001490405867215,"58":0.0850810361274378,"59":0.1583289738766275,"60":0.12895186669600978,"61":0.005388797709165388,"62":0.08689538478459208,"63":0.06887001445256896,"64":-0.13976120038684287,"65":-0.04614068522831837,"66":0.007148483621840279,"67":-0.08917513319390405,"68":0.12464972892650313,"69":-0.01097462886800148,"70":-0.025904642624343468,"71":-0.0020303844898298304,"72":0.11644411120531352,"73":0.14226374508246,"74":0.003136593558596427,"75":-0.01698903553483077,"76":0.019639524987968903,"77":-0.10763732621657195,"78":0.057894752212275115,"79":0.0974931040191524,"80":0.08147138094670678,"81":-0.03592275962856732,"82":0.01026868582347459,"83":-0.10554731524761983,"84":0.00829234773965415,"85":0.2097738348041615,"86":0.07889075697503398,"87":-0.024662968860472492,"88":-0.05107165955823675,"89":-0.01912080444339853,"90":-0.015809324136974952,"91":0.00712002961656758,"92":-0.06309093023163645,"93":0.150051948238782,"94":0.054825853463291184,"95":0.12705377059080722,"96":-0.13817816315065945,"97":-0.01369244687485354,"98":0.10397206677132524,"99":0.10845181226177099,"100":0.0413974624516716,"101":-0.019437624460792585,"102":-0.0188670034354734,"103":0.04945658578998585,"104":0.041572241334585175,"105":-0.12006394670509105,"106":0.10396584306873721,"107":0.0488539000662809,"108":0.024848395690759764,"109":0.022274360608622076,"110":-0.13915133627598408,"111":0.276397961332703,"112":0.0030285492832278675,"113":-0.13197538660570995,"114":-0.11420425071824493,"115":-0.05487956793568605,"116":0.11135818066360674,"117":-0.019670708433411368,"118":0.004572752295121733,"119":-0.008605036245897741,"120":-0.059082883188596357,"121":0.04982345103140272,"122":0.12503083970859494,"123":-0.2622477160302884,"124":0.15997118840387806,"125":0.12099233703955721,"126":0.07746887255959604,"127":-0.003611912396074671,"128":0.14465218502120245,"129":0.011799453625042013,"130":0.05522243861876618,"131":0.08530097654347547,"132":-0.12326419744296863,"133":-0.006892754735149581,"134":-0.054924437696395906,"135":0.08066428936368356,"136":-0.10416470935198517,"137":0.19896662681340926,"138":0.1327701011973099,"139":-0.07229727671829227,"140":-0.02780028964480763,"141":0.04482646972958508,"142":-0.13168228001627202,"143":0.09329494771280458,"144":0.1137205511341002,"145":-0.1486978744409579,"146":-0.000555812237357749,"147":-0.012241616118876234,"148":0.1219541274978929,"149":-0.20490674435798564,"150":0.2315351924633026,"151":-0.010425850021514884,"152":-0.07168806911088199,"153":0.1338758225154272,"154":-0.03706847372486979,"155":0.059629391338031267,"156":0.01154267803425635,"157":-0.06486576166405635,"158":0.002871985983080199,"159":-0.08161980731301853,"160":0.05742048767433949,"161":0.05307080476857942,"162":0.07110975943407791,"163":0.207903051703276,"164":0.18705537239932454,"165":0.11704822696173706,"166":-0.13249692481629705,"167":-0.07627776739052179,"168":-0.09365433801945808,"169":0.2446976516975307,"170":0.06798316191361556,"171":0.01691594165604617,"172":0.027471587548249583,"173":0.000402905292277111,"174":-0.09432140143957597,"175":0.16567425108511097,"176":0.31035545041027307,"177":0.0675052191030598,"178":-0.2558663084224758,"179":-0.01425670005651391,"180":-0.05974940053406814,"181":0.019199737375999285}},{"sx":1,"sy":1,"depth":182,"w":{"0":0.1621901506210987,"1":-0.011496672389602811,"2":-0.08375290943402455,"3":-0.07347706653211596,"4":0.108750012502889,"5":0.20318484719187038,"6":0.15606864011216787,"7":0.07591187891566857,"8":-0.10117390300518762,"9":0.22643305795108778,"10":-0.011005948457028592,"11":0.15137805308035748,"12":-0.028024629773086465,"13":0.18310120237133654,"14":0.043502482014184406,"15":-0.008092076743557275,"16":0.07878374877744133,"17":0.13549786452377582,"18":-0.08797160274652606,"19":0.10027936698496343,"20":-0.059572960434531703,"21":-0.032648897963517234,"22":-0.00673906328483115,"23":0.08227829287477752,"24":-0.048320000180176716,"25":-0.013272708840390291,"26":0.03250267210367143,"27":0.018020448339675185,"28":0.0692798679273047,"29":0.04372854340464688,"30":-0.03438046290866696,"31":-0.03829086316469482,"32":0.0063599876006818394,"33":-0.06799735426583649,"34":0.04984545905859145,"35":-0.018194176116390664,"36":-0.024538361820199722,"37":0.01810836832350832,"38":0.049721652862625684,"39":-0.043530778745290266,"40":0.007443512220800349,"41":-0.022280636736613603,"42":-0.019587130145133823,"43":0.04852585085697012,"44":0.045544080074794886,"45":0.008930848333010022,"46":-0.11364704834289051,"47":-0.07306302412925131,"48":0.023423964871538767,"49":-0.055062196982556384,"50":-0.003671211743710501,"51":-0.10624555330932409,"52":0.11444889550933425,"53":-0.017289589610473347,"54":0.13920680594105547,"55":-0.010778631132868179,"56":0.016214979466512652,"57":0.13936284177636019,"58":0.03967176698681909,"59":-0.10070062862009033,"60":0.07741717018062864,"61":-0.04004994994742288,"62":0.07502370308188115,"63":-0.056494446322981666,"64":-0.014676351534557378,"65":0.042607522804517496,"66":0.11130626528792578,"67":-0.025598605651967823,"68":0.0033023411750211745,"69":-0.01949491794049178,"70":0.08975309097397077,"71":0.05518978529058089,"72":-0.023310258830423914,"73":-0.06893940748322565,"74":0.04330996787176634,"75":0.07291194927362067,"76":0.10469581688560996,"77":-0.024758368303305918,"78":0.05921963643824206,"79":-0.023531901481604573,"80":0.00443489564038902,"81":-0.09668448991729794,"82":0.16129791024359824,"83":0.0952817015227904,"84":0.04511352350017564,"85":0.19232124171235584,"86":-0.012802569425126928,"87":-0.14520219079276994,"88":-0.07811704439529958,"89":-0.10218662857482678,"90":-0.09647786937301953,"91":-0.03438906241246802,"92":-0.11476776952822743,"93":0.025239627216746354,"94":-0.04032721437016814,"95":0.0003982895173009227,"96":0.09040680761326819,"97":-0.026211232333226163,"98":0.07828766304341134,"99":0.11415505490678446,"100":0.07305512545787168,"101":0.029602577875411522,"102":0.023648844547697896,"103":-0.015917693295304215,"104":-0.022476158207691117,"105":0.008508743200402877,"106":-0.05262900540198479,"107":-0.061810484499418686,"108":-0.10028894748207577,"109":0.08575125354244646,"110":-0.0685823860120112,"111":0.0759689038229897,"112":-0.09965483926752965,"113":0.032888554596581326,"114":-0.0012208017406233796,"115":-0.047819280123467985,"116":-0.13693410758145466,"117":-0.0000776762314441941,"118":-0.029147872449906267,"119":0.052361845467623416,"120":0.101072637122529,"121":-0.04173692109628173,"122":0.114616363257788,"123":-0.13932327811003586,"124":0.012670477190136633,"125":0.02677941170569756,"126":-0.1167882025745597,"127":0.055131927847439116,"128":-0.029181920999307435,"129":-0.09997298713649022,"130":0.09668185324894492,"131":0.0622174026963493,"132":-0.11370120072205717,"133":-0.05139990636541699,"134":-0.016762598295477996,"135":0.10036670923808348,"136":-0.004464635263054828,"137":0.07232148509372624,"138":0.00022717614999734294,"139":-0.016417796013140515,"140":0.008309907823897308,"141":-0.08190075754204347,"142":-0.06817981657592534,"143":-0.05553858424894323,"144":0.04589400423163131,"145":0.10029945038968208,"146":0.014270923267141666,"147":-0.011532934268262752,"148":0.05412749722912571,"149":-0.15594349583996395,"150":0.037609908713332765,"151":0.014423192575450662,"152":-0.026504389999390796,"153":0.16905563216400651,"154":-0.039918276679720234,"155":0.02311201015117617,"156":0.058163611000865,"157":-0.0030692827003033145,"158":-0.18305179268306215,"159":-0.10068857459754768,"160":0.031087377541764744,"161":0.12882364988545453,"162":0.10450145402396338,"163":0.11221342014669118,"164":-0.10136528007931911,"165":-0.04697986399860034,"166":0.06160976706371377,"167":0.014095529601448938,"168":-0.0887700412432456,"169":0.09335144163698122,"170":0.06344030660113736,"171":0.017677061796840626,"172":-0.09103637756617017,"173":-0.0017089580155334242,"174":-0.03209188875843708,"175":0.276643295238106,"176":0.22981175561143538,"177":0.21255590168404767,"178":0.02152933928068494,"179":0.12199945057467085,"180":-0.018208907618296265,"181":-0.19588104350925803}},{"sx":1,"sy":1,"depth":182,"w":{"0":0.1055343826458871,"1":-0.05119679620615538,"2":-0.08436149889927451,"3":-0.05339178987266858,"4":-0.03988717128094674,"5":0.0402340695027911,"6":-0.03997779967616548,"7":0.02972396265836221,"8":-0.06759814770716883,"9":-0.11807021264296835,"10":-0.027389368943148973,"11":-0.003204661291740244,"12":0.05530577585645683,"13":0.10447839061449501,"14":0.05712989814740938,"15":0.002059894282659456,"16":-0.054000656520559846,"17":-0.023510758591030485,"18":-0.11693457359995929,"19":0.029898678168392034,"20":-0.06681421237290983,"21":0.044593894011126504,"22":0.0327435329299429,"23":0.0033935165167911134,"24":0.07039078549460955,"25":-0.09193944989221081,"26":0.1153603552960157,"27":0.10534850852581361,"28":-0.04080736835767272,"29":0.030786386147060002,"30":-0.012855194069042243,"31":0.05029621301222251,"32":0.15936785340480358,"33":0.042324864636320104,"34":-0.04360233391779219,"35":-0.029827833258728793,"36":-0.11872350449076391,"37":0.01066178412024344,"38":-0.11993715889963029,"39":0.01912365774723343,"40":-0.05994129466995487,"41":-0.09758774155771235,"42":0.005104446663101668,"43":-0.015287591224616936,"44":0.05921957935120711,"45":-0.06432946502339827,"46":-0.028238878697115558,"47":0.03692872177354234,"48":-0.03782012962216984,"49":-0.1327067840839021,"50":-0.03492769801308379,"51":-0.05001281951836747,"52":0.04035600177154356,"53":0.0026726014972816435,"54":-0.042827078517463896,"55":0.012176174125778268,"56":0.05108847952235463,"57":-0.08826599177788969,"58":0.03924540221905853,"59":0.0052685233936896085,"60":-0.017511768277789524,"61":0.017186227513235126,"62":0.11563244372949427,"63":0.003190233049650752,"64":0.019576042676545488,"65":0.0542776699024388,"66":-0.06098172177321062,"67":-0.12986323965669863,"68":0.03230608347401396,"69":0.035940647226511774,"70":-0.07368614161931283,"71":-0.04174078540158288,"72":-0.051967456424664264,"73":-0.08087726057581346,"74":0.006076527814010186,"75":0.0631452162701839,"76":0.043487801922471786,"77":-0.002143324616433645,"78":0.04835406655604691,"79":-0.08579815928322895,"80":0.08432919811996999,"81":0.12886787008732836,"82":-0.0030217381329659602,"83":-0.036962416240218426,"84":0.126446979484438,"85":-0.128256983945489,"86":0.0394549107138424,"87":0.003723017650287066,"88":-0.0433663304309716,"89":0.11846829446629187,"90":0.06727199226860815,"91":-0.07042546038537831,"92":0.09977195346031913,"93":0.11640278301132609,"94":-0.07577902692714966,"95":-0.09473818010164733,"96":-0.06138960958637195,"97":0.03177897620029476,"98":-0.10725877567855767,"99":0.017584900651989987,"100":0.03588466613021064,"101":0.13818692072209823,"102":-0.061853682999900746,"103":0.036753276902194106,"104":0.05114219019950326,"105":0.004385070747282545,"106":-0.04975243046301641,"107":-0.02449170749420315,"108":0.08185968188899996,"109":-0.02431958856330844,"110":0.0064891927606246244,"111":0.043057382344869104,"112":0.03690104276497642,"113":0.01262845695566936,"114":0.11963001625461259,"115":0.0026350556661771307,"116":-0.039131333684488706,"117":-0.020100019547209462,"118":0.14493295068464598,"119":0.06889861835532561,"120":-0.004421352287348817,"121":0.08089360903758103,"122":-0.06175814309824151,"123":0.03853258485287417,"124":0.11051960747114463,"125":-0.005255886999113619,"126":0.012130898309151523,"127":-0.005349284061505927,"128":-0.05536774762906611,"129":0.045798962527077804,"130":0.03218519359847325,"131":0.011713500613157537,"132":0.014008306266739797,"133":0.07527274376614737,"134":0.032281419589305645,"135":-0.10464347252528003,"136":-0.11260671382097373,"137":0.02287784923144899,"138":0.070177724323668,"139":-0.013058167139119194,"140":-0.1279448297570342,"141":-0.13893090131829144,"142":-0.049675127852131,"143":0.03056875120256407,"144":0.03524532978229718,"145":-0.1587667455805923,"146":0.12245159381549796,"147":0.2301182936042796,"148":0.1317150564981783,"149":-0.013482190927150035,"150":-0.05691707255669185,"151":-0.047280958804928955,"152":-0.04348652931681427,"153":-0.003439631518571727,"154":0.01833370224756265,"155":-0.03525260405474487,"156":0.06584988535164293,"157":-0.055462440870978916,"158":-0.04045363054991217,"159":-0.06392906860901244,"160":-0.00024718098390756046,"161":0.06596259535866601,"162":-0.1408696768095017,"163":0.10227906222857905,"164":0.06585426260999756,"165":0.07398052630418803,"166":0.18216067072251685,"167":-0.11441312922817481,"168":-0.03113435552545798,"169":0.04001880656855575,"170":-0.0126455427208925,"171":-0.11178140093115602,"172":-0.0022167098166206932,"173":0.052694688982052804,"174":-0.11643812010091112,"175":-0.07153314099215967,"176":0.020821538543228747,"177":0.024750827716806846,"178":0.015013121136197427,"179":-0.13367548679698787,"180":-0.07520930874216122,"181":-0.08107871492579921}},{"sx":1,"sy":1,"depth":182,"w":{"0":-0.019779680388952805,"1":-0.03606031617373126,"2":0.06359894322098789,"3":0.1244621068714861,"4":-0.10600504955593998,"5":-0.0860158171770141,"6":-0.3139144861740166,"7":0.04960621024939539,"8":-0.043597466550195696,"9":0.10645382109537625,"10":0.06945573020740164,"11":-0.04030433664775221,"12":-0.07066681251030725,"13":0.00870158580498244,"14":0.04752915252763661,"15":0.020468881771060043,"16":0.1367796906749217,"17":-0.040706069453145186,"18":0.08521497958297246,"19":-0.13644190258109612,"20":-0.21524254439065418,"21":-0.0009158974344664557,"22":-0.016913310290571273,"23":0.059261013555833325,"24":-0.08697011503757388,"25":-0.1259410042242994,"26":-0.08620982311050815,"27":-0.02897101412835405,"28":0.04668379177143094,"29":0.03358217353886639,"30":-0.026168788045571836,"31":-0.14418689483767017,"32":-0.03846531214518344,"33":-0.13453399721650278,"34":0.005573876911382135,"35":-0.019167652267296085,"36":-0.04220275528138024,"37":0.07385682385913965,"38":0.026599649231915587,"39":-0.04569033246219559,"40":-0.07470552764304257,"41":-0.22397402984996656,"42":-0.09530337458553288,"43":-0.02957017448793789,"44":-0.11310741780164865,"45":-0.118953024424629,"46":-0.053675139832269604,"47":0.10725219361548104,"48":-0.0219460297574938,"49":0.03446783593687925,"50":0.15370803075257233,"51":-0.11714017470706359,"52":-0.19603296837593318,"53":0.06906311524779707,"54":-0.08849662523605195,"55":0.14034154091243697,"56":-0.02828059968472896,"57":0.006515863416253379,"58":-0.23343854874323489,"59":-0.08614886868195192,"60":-0.02424994939607098,"61":-0.1665755233720255,"62":0.0429393368552501,"63":0.04661202039567845,"64":-0.164996723604208,"65":0.0302507218495849,"66":-0.033180130203670034,"67":-0.03344924635650849,"68":-0.12466410656676895,"69":-0.09223915765167603,"70":0.03164497007897647,"71":0.15518258219551884,"72":-0.15792776486669532,"73":-0.07498195343367331,"74":-0.0019722309455904763,"75":0.009253015782702856,"76":0.0395856605962475,"77":-0.22369835489223566,"78":-0.02472790291625204,"79":-0.062404998042340384,"80":0.07631972320884216,"81":-0.061821740983073206,"82":-0.03547393383790631,"83":0.017087121458495457,"84":0.06512479593990599,"85":-0.14656778885822883,"86":0.08306175837880697,"87":-0.021114034473059227,"88":-0.1047097244927781,"89":-0.014720908752290698,"90":-0.07476665250191186,"91":0.03270011780418677,"92":-0.024990325052383813,"93":-0.06145260735665475,"94":-0.15498471856741736,"95":-0.06999826033867365,"96":0.059168683761962215,"97":0.11303059079221339,"98":-0.004568388324525377,"99":0.0035266692292004465,"100":-0.02346091000455122,"101":-0.013232743906177543,"102":-0.05742697343096998,"103":-0.11725738811157739,"104":-0.09972321543438148,"105":-0.14932583565019758,"106":0.053232577538617744,"107":0.036786923244878124,"108":-0.1782016863770372,"109":-0.0328798742943072,"110":0.1841091704908612,"111":0.008147868378461102,"112":-0.10649695588022803,"113":-0.10990816793994432,"114":0.09517250906804454,"115":0.02862202996065261,"116":-0.03911348427428505,"117":0.09263892713304131,"118":0.05174686461658523,"119":-0.05939994176591142,"120":-0.007399705401498901,"121":0.012070417807476048,"122":0.09686973670345678,"123":0.10539989803714178,"124":0.040745309186466586,"125":0.1120858286733679,"126":-0.06755654761754741,"127":0.07647039570495681,"128":-0.0077071270523325006,"129":-0.2593570390935889,"130":0.13896800111513155,"131":0.0020599431262811785,"132":-0.06183857348147728,"133":-0.16723821696702323,"134":-0.15934669635450135,"135":0.10023044733522703,"136":0.2622348764264729,"137":0.06980843247435035,"138":-0.08184402207046657,"139":-0.03805306541237467,"140":-0.03958605279278585,"141":-0.08238882023415132,"142":-0.09098285581571944,"143":-0.02254884910700921,"144":0.10454929394265276,"145":-0.010668612906440262,"146":-0.07527631911001537,"147":-0.08274426464990745,"148":0.12699311076231906,"149":0.07658911899374729,"150":0.05853000281115014,"151":-0.17009925305575002,"152":-0.08843010640418082,"153":-0.05508439971054159,"154":0.0962665551122081,"155":0.049052307865488996,"156":-0.04858183659907974,"157":-0.06561852974789512,"158":-0.034172949008904316,"159":0.002656243441629202,"160":-0.09982253160965707,"161":0.0854886300866286,"162":0.18883842654760155,"163":0.07618217104542145,"164":-0.0776951310893773,"165":-0.11057860073876193,"166":-0.030566163067546337,"167":0.07464329343970594,"168":-0.11738234878862398,"169":-0.03273443740382742,"170":-0.08611998357567145,"171":-0.12249838643291927,"172":0.034225569421044696,"173":0.0028212048371505597,"174":0.056168685969631746,"175":0.16618384859842275,"176":0.01936886896069465,"177":-0.10202269780216051,"178":-0.3365610992220737,"179":0.05255835862158073,"180":-0.02935639541452564,"181":-0.17339479161036606}},{"sx":1,"sy":1,"depth":182,"w":{"0":-0.03475496979290127,"1":-0.06440447532078626,"2":0.1147888726902949,"3":0.0997027280505797,"4":0.0816883090423257,"5":0.024385601780740167,"6":-0.3021560009117645,"7":-0.009061181428212417,"8":-0.00930391357510502,"9":0.09377159570353247,"10":0.05924531653857455,"11":0.03372147375881663,"12":0.1158108819355067,"13":-0.08227059015335178,"14":-0.01919182353639584,"15":0.06977465822659651,"16":0.023451512155065274,"17":0.019579182105476888,"18":0.15049041327786053,"19":-0.0753195308889623,"20":-0.04453821832494447,"21":0.16152395922279114,"22":0.16825051965371093,"23":0.10804338929311003,"24":-0.04820197396141895,"25":-0.004095617304113366,"26":-0.0494519726921477,"27":0.039329961046972506,"28":0.13246597394247858,"29":-0.019472121979608764,"30":0.0457809753369472,"31":0.08810132301689719,"32":-0.091241672232969,"33":0.128065997292675,"34":0.06806918937947999,"35":0.11347494811036041,"36":0.08550710348471523,"37":-0.09637106947160819,"38":-0.0970456295001916,"39":0.033731730759242476,"40":-0.03834374438968887,"41":0.1857415893788342,"42":-0.07495527858847392,"43":-0.007931258723550395,"44":-0.02712899543587257,"45":-0.017583991423531994,"46":0.2685920679398633,"47":-0.11375174099134312,"48":0.11187773419730945,"49":-0.09231907533075101,"50":0.061894074097977654,"51":0.01274327833391246,"52":-0.010338898379460306,"53":0.027846768623742076,"54":0.049734695052371006,"55":0.03671247982886655,"56":0.14204281864809176,"57":-0.10382613291122383,"58":-0.3628322138273276,"59":-0.015017024956402517,"60":0.09490419777963292,"61":0.13642804098424038,"62":0.11676860217751625,"63":0.06921273171494743,"64":0.02867569990650157,"65":0.14247110359001627,"66":-0.08207632652436206,"67":-0.00007912412076939982,"68":0.12498592965075846,"69":-0.02423508189725799,"70":0.002435082797624671,"71":-0.3397934544764682,"72":-0.014137785531321135,"73":-0.10488283588813535,"74":-0.15932045093792863,"75":-0.020120235015703824,"76":0.03481726804022755,"77":-0.1016285960256828,"78":0.03289326291360974,"79":-0.0018540084315793925,"80":0.1154593432892414,"81":-0.06356372902245791,"82":-0.013976938433372022,"83":0.13148775798815837,"84":-0.22831911555863363,"85":-0.12892670890450555,"86":-0.029321311139009362,"87":-0.021190619628142247,"88":-0.10098892848673606,"89":0.12164586525158927,"90":-0.10242200275299251,"91":0.04145519612593393,"92":-0.025361127306768903,"93":-0.12960236507547643,"94":0.05719223916302603,"95":-0.002703552284751076,"96":-0.1638234631399362,"97":-0.07906582253573888,"98":-0.15727977392062964,"99":0.10378696506855753,"100":0.12318816251824398,"101":0.021871077114136238,"102":0.11916857332260479,"103":-0.0568990796207565,"104":0.00892095651621912,"105":-0.02265346462190868,"106":0.08106290389245746,"107":0.1664719434909575,"108":-0.011498103190778864,"109":-0.039372984464941724,"110":0.37125806023085745,"111":-0.2590181307414759,"112":0.06107984706152908,"113":0.042552797412963875,"114":0.11917792688607612,"115":0.05209315065111174,"116":-0.1733538688459323,"117":-0.06854383627289526,"118":0.036562961927991106,"119":0.010380939115384765,"120":0.013516817751603377,"121":0.07956819884472688,"122":-0.13229788110494095,"123":0.48994887914600943,"124":-0.23753222226212325,"125":0.024765686499678592,"126":-0.034750023444472485,"127":-0.08892389083046322,"128":0.022202887053689533,"129":-0.024801784938589953,"130":0.05506151966822899,"131":-0.027524385641917667,"132":-0.002171759282305974,"133":0.0036712865209898274,"134":0.17446724713610326,"135":-0.11591300474213645,"136":0.3445182123359081,"137":-0.12943757952881357,"138":-0.08306418828514416,"139":0.042056942258230263,"140":-0.20518983623655934,"141":0.035180012115794676,"142":-0.021696791568815012,"143":-0.05388615754752977,"144":-0.045150827517172656,"145":0.08725995980999166,"146":0.06159026983411974,"147":-0.017502138771926787,"148":-0.13863658743986318,"149":0.51020789368286,"150":-0.2830662012339383,"151":0.0008968964620609726,"152":0.04719870995919695,"153":-0.008892350159795089,"154":0.0685163382900313,"155":-0.08998380573943526,"156":0.06323061964582814,"157":-0.08303275186781948,"158":0.105351412374151,"159":-0.14150485370720567,"160":0.06936548712915461,"161":0.02625084867469092,"162":-0.08655697289098457,"163":-0.33534311779256604,"164":-0.09912949988407088,"165":0.028397539065687857,"166":0.07177295547398065,"167":0.00345865523716635,"168":0.1510065223621147,"169":-0.035739366907164345,"170":-0.1596009492045707,"171":0.14525183848261738,"172":0.04648411576649428,"173":-0.10221813906960345,"174":-0.19736938439020624,"175":-0.059386655346616087,"176":-0.26063493846351965,"177":-0.04504886964726907,"178":0.16534598171134363,"179":0.047455977178006994,"180":0.14693951104974215,"181":-0.05960370499621679}},{"sx":1,"sy":1,"depth":182,"w":{"0":0.08091418767047287,"1":0.03948248556695333,"2":-0.15944655878326824,"3":-0.08467438863266291,"4":0.12629322360756398,"5":0.06337616061966066,"6":0.23683671288969788,"7":-0.013449947297008486,"8":0.06897133429719152,"9":-0.05201624425588337,"10":-0.14012971040161978,"11":0.055914388483295975,"12":0.0661078224614003,"13":-0.11481954330369964,"14":0.01079937465048441,"15":0.15118039790119567,"16":-0.08620403107108435,"17":-0.045027505887787166,"18":-0.026206787284858084,"19":0.05407395093620277,"20":-0.11106936531639035,"21":-0.05543534103191442,"22":0.08419838573287629,"23":0.017778061884030163,"24":-0.12042935152322108,"25":-0.06976973702755557,"26":0.13700237450419336,"27":-0.017170943471922932,"28":0.07874810884536403,"29":-0.03668746530939782,"30":0.02184732149350986,"31":0.022764692508860408,"32":0.09223931439184524,"33":-0.10504215936592358,"34":0.013648813591277188,"35":-0.055857500616215285,"36":-0.04598450084030074,"37":0.02634513803709515,"38":0.12064899485394569,"39":0.12797344374709296,"40":0.028268890231917334,"41":0.0334837144994905,"42":-0.03216237168732995,"43":0.022884030888331096,"44":-0.027633346176197914,"45":0.06818322949565553,"46":-0.0222668353011286,"47":-0.043688916960022944,"48":0.08615502004482677,"49":0.02155920239298908,"50":-0.03550090015266152,"51":-0.04004285442892918,"52":-0.01439283325317583,"53":-0.16385452118901445,"54":-0.12546399586940746,"55":0.03786646623742632,"56":-0.033228751706819076,"57":0.08596364657659934,"58":0.11078891488889475,"59":0.12472223766555203,"60":0.13014953040876967,"61":-0.03365953877639105,"62":-0.03174145337543,"63":-0.012428560439717535,"64":-0.01648323555729174,"65":-0.1704856361714953,"66":-0.03699878246971468,"67":0.024621514447679186,"68":0.03721798296688637,"69":0.08770962426629425,"70":0.07218299715545656,"71":0.15579018321698204,"72":-0.09520419861798421,"73":0.02065044516610508,"74":0.035347061509128905,"75":-0.0143360599631004,"76":-0.1061713204815111,"77":-0.07038869116985018,"78":-0.018478826310804088,"79":-0.021495324601749667,"80":-0.23151883259346107,"81":0.02287871481112435,"82":0.0021613366276084034,"83":0.05637548858514668,"84":0.1142444471670054,"85":-0.06563986879544231,"86":0.049807912951186646,"87":0.04229411887526791,"88":-0.014218473932159812,"89":0.022181195226715373,"90":-0.03571975121709532,"91":-0.07986112015260444,"92":-0.09290980904099817,"93":-0.0988885334274876,"94":0.09750517269244306,"95":-0.04232518644582244,"96":0.13077531039125323,"97":0.17713979828119966,"98":0.021076661086374352,"99":0.07801930507782376,"100":-0.016597482826357556,"101":0.10015777822856785,"102":0.012517629804137667,"103":-0.04323805752140661,"104":-0.06922593353136597,"105":0.06722588804750732,"106":-0.11942266420085257,"107":-0.06148006628282697,"108":0.16161184129099176,"109":0.06771747059459525,"110":-0.2359537670056483,"111":-0.050337931502848314,"112":-0.003576870444286064,"113":-0.04312273749573166,"114":0.06595615365900166,"115":0.005145324681591116,"116":0.01803027140752895,"117":0.09081442255691409,"118":0.1560859727968481,"119":-0.18085388506056002,"120":0.09066918314762897,"121":0.09529989904892416,"122":0.09914419669100633,"123":-0.20901921668715462,"124":0.18962552891408613,"125":0.009710480410439325,"126":-0.018276066480802575,"127":0.04738479509438094,"128":-0.08352671633880329,"129":-0.06733163793129762,"130":-0.05642882264253998,"131":-0.07809780081245705,"132":-0.24663487406496096,"133":-0.10142933961026067,"134":0.14789504445319335,"135":0.09306516951673795,"136":-0.24941156130405806,"137":-0.07654715391203051,"138":-0.01549687082934507,"139":-0.0444915630141764,"140":-0.043835991779848385,"141":-0.024690824873412728,"142":0.004702627007627125,"143":-0.01969926695828852,"144":-0.03205914355705638,"145":-0.18393185843833745,"146":-0.11171397245307987,"147":-0.0733294642209406,"148":-0.02405391411630765,"149":-0.2198214951387222,"150":0.06282792649420228,"151":-0.012364830725337164,"152":-0.005397099729635687,"153":0.021620284445770473,"154":-0.03886814019903796,"155":-0.16140068281225262,"156":0.13333652349726585,"157":0.022183594975923024,"158":-0.04200855553629589,"159":-0.11086246088739758,"160":-0.04583343633979916,"161":-0.015826803151425758,"162":0.19039030926964684,"163":-0.1640093990736769,"164":0.040073133708572954,"165":0.008966710544369174,"166":0.044004419215061916,"167":-0.04493206205687703,"168":-0.25371368883946316,"169":-0.10781336777423244,"170":-0.04057253020612164,"171":-0.00812525490016344,"172":-0.1115604200187495,"173":-0.05371907536865683,"174":0.04160284181296287,"175":0.09352074541095437,"176":-0.10059961432893504,"177":-0.04568779529257854,"178":-0.0005047663785194159,"179":0.010472462768191622,"180":0.09253251996854531,"181":-0.024071751202191523}},{"sx":1,"sy":1,"depth":182,"w":{"0":0.060804779717715446,"1":-0.020323992663154915,"2":-0.04975118253478369,"3":0.10299490966916061,"4":-0.01956703626436331,"5":0.057142408563426,"6":0.35531135959384547,"7":0.23313496488284596,"8":0.19635954187416346,"9":0.06288365210110834,"10":-0.016877665339387365,"11":0.032206331951264294,"12":0.07513766919568164,"13":-0.11816360793095475,"14":-0.023841612198702938,"15":-0.06727967755938502,"16":-0.0216164778564916,"17":-0.01597213541265942,"18":0.1273601803417994,"19":-0.056271590873747945,"20":0.06971916370757379,"21":0.19557296435088378,"22":0.13809609158342676,"23":0.10296455103419626,"24":-0.06498869860155543,"25":-0.22785046960662558,"26":0.07277140372281277,"27":0.09294070674988533,"28":-0.09599631661418409,"29":-0.036895201715349185,"30":0.016870269621281044,"31":0.1503370228735102,"32":0.2644763760836041,"33":0.028006124985801753,"34":0.15667795487304098,"35":0.05719034695555898,"36":0.1909149400806311,"37":0.0560562855387723,"38":-0.07396301976323545,"39":-0.05923022204998838,"40":-0.06463399163199188,"41":0.07135479468679952,"42":0.02490468618131472,"43":0.014626279349532952,"44":0.08779481426075517,"45":0.09001082032413536,"46":0.13660557720327707,"47":0.1660928713780654,"48":0.03820516230635911,"49":-0.03771250882291257,"50":0.0755027043891948,"51":-0.05971815665260078,"52":-0.02306995696322882,"53":0.04357641667433767,"54":0.05839931984221421,"55":-0.02769900800815448,"56":0.08035227876856933,"57":0.11866271262995351,"58":0.2675967537038323,"59":0.03494915555211616,"60":0.07431047045088897,"61":0.04832907803054834,"62":-0.06531831925569613,"63":-0.08563320705388869,"64":0.040484976943542736,"65":-0.11146528596036316,"66":0.0530508612017803,"67":0.037510382766943705,"68":-0.00848483158211327,"69":0.045661016276861664,"70":0.1406681744133833,"71":0.334149593004451,"72":0.10545344481861899,"73":0.1736618337518402,"74":0.06330524105913923,"75":0.11853883925368526,"76":-0.007366025761848423,"77":0.09668772034813823,"78":0.013982808519559199,"79":-0.07341728301466814,"80":-0.031677561690159624,"81":-0.05522750790248343,"82":0.09720034153117164,"83":0.07152608754635333,"84":0.2986714163381137,"85":0.1389204772132488,"86":0.09739546541055104,"87":0.0015748973781847947,"88":0.07100047731483428,"89":0.1388099211380427,"90":-0.1134608099928322,"91":0.07352691574897442,"92":0.037571826460694284,"93":-0.020859520808635554,"94":0.09716270128285542,"95":0.19333928900533806,"96":0.1467532972977205,"97":0.19646899916537172,"98":0.07503824608840506,"99":0.14639060545031085,"100":0.04633387949104798,"101":0.053160695584439185,"102":-0.005404459973623766,"103":-0.042698543644101965,"104":0.07317934015154132,"105":-0.028625851116329492,"106":-0.07423354173350286,"107":-0.07814969920123249,"108":0.11545884094980582,"109":0.11876520421546982,"110":-0.1309753288615814,"111":0.1509338573169932,"112":0.16318349455722497,"113":0.07542772739360792,"114":0.06316657829197897,"115":-0.04850953463194587,"116":0.04389440348126925,"117":0.0091879604239692,"118":0.019401923255291203,"119":-0.02230512349110566,"120":-0.10635076564199311,"121":0.04317719629154395,"122":0.2516587906439348,"123":-0.3922075285684555,"124":0.22713236857018845,"125":0.04680463201882472,"126":-0.043781415471167595,"127":-0.03300723286029681,"128":0.08255823520428704,"129":0.061264087023498406,"130":0.008684208640910882,"131":-0.03823594709438653,"132":-0.12084842429569674,"133":-0.010414704357690057,"134":-0.054674833209727144,"135":0.05737668978997458,"136":-0.3192663297090506,"137":0.009789956052423096,"138":0.011202076183460327,"139":-0.034345478970847984,"140":0.030465956339380523,"141":0.06560408019341611,"142":-0.08141083923034066,"143":0.11862458196888379,"144":0.0024836858775884613,"145":-0.08505860593927189,"146":-0.12504308615622683,"147":0.047085121348238904,"148":0.17809982703263025,"149":-0.19891429243679515,"150":0.19539064349669838,"151":0.038250553454968174,"152":0.03808131906405064,"153":0.0892611687495766,"154":0.09239624206082657,"155":0.07045279818394982,"156":-0.034167303442465054,"157":0.09703656110997787,"158":-0.08382984959580822,"159":0.024413100642634744,"160":-0.008979514321529937,"161":0.07349409999337171,"162":0.3124062872737936,"163":0.12088629134735514,"164":0.1726265553475844,"165":-0.009862862138857596,"166":-0.023524281771203477,"167":-0.03795491869618357,"168":-0.09106679873330956,"169":0.10130513861473169,"170":0.03742675298796425,"171":-0.06358855000744025,"172":0.09551607565217012,"173":0.04708240373967235,"174":0.14375652593866473,"175":0.29070487615691004,"176":0.17350620702065306,"177":0.0264826197581333,"178":0.02153021991424794,"179":0.06463676117392618,"180":0.012358955103161937,"181":0.02535240320810804}},{"sx":1,"sy":1,"depth":182,"w":{"0":0.05628752207921642,"1":0.061823997635215434,"2":0.0038343272661090035,"3":-0.02783290702244853,"4":0.012278713872540753,"5":0.033529713598810955,"6":0.03090252665827719,"7":-0.02498749476316705,"8":0.0025600093467227606,"9":-0.023630976748854636,"10":-0.004088752665323244,"11":0.08745277623368079,"12":0.0348858046171938,"13":0.06820115306253803,"14":0.10979312412140187,"15":-0.019623186656741343,"16":-0.03533057017974625,"17":0.022979112550685125,"18":-0.20854039816974534,"19":0.02254708990980635,"20":-0.04951187798113745,"21":-0.032863246499217236,"22":0.028016193084443405,"23":0.09414456153347099,"24":0.038544605702139724,"25":-0.02830005024563127,"26":-0.045273158709401344,"27":0.025935591559086986,"28":0.08273814057691153,"29":-0.038893166163388164,"30":-0.09385246670683128,"31":-0.1324553183578384,"32":0.1190195882217279,"33":0.007947031901109954,"34":0.08010928591818343,"35":-0.050451850923443196,"36":-0.035188219390319804,"37":0.1795526031770809,"38":-0.14386965305708538,"39":-0.0900737017901765,"40":-0.027294797259861812,"41":-0.03798671368046597,"42":-0.12205145320268818,"43":0.1222070361528697,"44":0.13387310740684197,"45":0.06098829625545737,"46":0.06911516643000976,"47":0.048091136027279706,"48":0.027815720803958197,"49":-0.06492818994134128,"50":-0.013300158119890357,"51":-0.09497797288746572,"52":0.06007158198143359,"53":-0.02671144765120339,"54":-0.154038530125898,"55":-0.018153891846845235,"56":0.03854541014459694,"57":-0.0007185620752203202,"58":0.13012443193134862,"59":0.06311003181375668,"60":-0.11159940428360468,"61":0.012121952149640831,"62":-0.042536076270163606,"63":-0.11614308315294969,"64":-0.09010063317718509,"65":-0.10332760349910167,"66":0.029962406515482775,"67":-0.10904152339332995,"68":0.06153050757930228,"69":0.1082270475838429,"70":-0.003007975685240287,"71":-0.04004340855322869,"72":-0.05503011171773781,"73":-0.09412369051000667,"74":-0.003299934397895178,"75":0.05875200848963648,"76":0.026123694816131443,"77":-0.0738744108246514,"78":-0.15810554014710776,"79":0.05810346661581709,"80":-0.0670227476038988,"81":0.061891483258983776,"82":0.08775181143538685,"83":0.09159100826073133,"84":-0.02285685201413037,"85":-0.1368858618033406,"86":-0.05056636968286603,"87":-0.014877606036365813,"88":0.016777950766436532,"89":0.11851270337550816,"90":0.03737629296760387,"91":0.0038658409099944827,"92":-0.005502826813885683,"93":-0.08677312161646283,"94":-0.0961470118769218,"95":-0.0703616888025301,"96":-0.11907610462379047,"97":0.11713696295498319,"98":0.11950199357289348,"99":-0.13012998508679927,"100":-0.00630176875767854,"101":-0.012730770925475077,"102":-0.11330221477469328,"103":-0.15059510200218112,"104":0.06771004567511683,"105":-0.04161118842355557,"106":-0.061723148818593566,"107":-0.14739870939884797,"108":-0.09609140832564406,"109":-0.023059905656689157,"110":0.0017624402315541915,"111":-0.031787538746655,"112":-0.035487721784682534,"113":0.030100880943476033,"114":-0.02843883970518613,"115":-0.05360963295339517,"116":-0.07381578518226292,"117":-0.0012727717161905283,"118":0.05939028858539755,"119":0.042560335956261346,"120":-0.0032565861348929706,"121":0.05003320519400385,"122":0.19873987278617947,"123":-0.10749389911669813,"124":0.05832116533878518,"125":-0.0020737919383602295,"126":-0.008095996900005271,"127":-0.0021757809861683124,"128":0.03888761048655833,"129":-0.007116941848165289,"130":-0.11793408482442147,"131":-0.12729473428148552,"132":0.050454567736315646,"133":0.1052768562686985,"134":0.06778912294695466,"135":-0.13424620248832125,"136":-0.03345274472904889,"137":-0.03501112379896644,"138":0.15803316842670495,"139":0.009766360903482194,"140":0.08945088520268757,"141":-0.01750952704776704,"142":-0.0123406399229704,"143":0.058906297914667165,"144":0.09349755869904118,"145":0.010059148061701276,"146":-0.10911446464720176,"147":0.17978934734120955,"148":-0.03427299882743371,"149":0.01808196115949531,"150":0.07702325665098156,"151":-0.014982914831868248,"152":0.01801820278830338,"153":-0.02950955063710276,"154":0.06115849324831479,"155":-0.02775871676365957,"156":-0.10633677656643478,"157":-0.06746303866871523,"158":0.11827783324291866,"159":0.001119724332925065,"160":0.11156026427913333,"161":-0.03516347587818073,"162":-0.032190006081389,"163":-0.03493035199408265,"164":-0.0039706755019221955,"165":0.03010616398579431,"166":-0.046494376707999226,"167":-0.022388799197818304,"168":-0.06656881986312933,"169":0.019045448246115343,"170":-0.018137571408568386,"171":-0.025091119413022053,"172":0.03800306519585756,"173":-0.1285380677363308,"174":0.08215523692666457,"175":0.006425339335774322,"176":-0.02595701159673129,"177":0.05018974616112926,"178":0.025620356749693055,"179":0.04743383310437432,"180":0.030884852781621095,"181":-0.055021087591629055}},{"sx":1,"sy":1,"depth":182,"w":{"0":-0.06356718137892639,"1":-0.03848747348620567,"2":0.0328513303920236,"3":-0.01285719168764666,"4":-0.01619656281708371,"5":-0.0178426419392979,"6":-0.03207165671573305,"7":-0.13988294400857446,"8":-0.02450871452941621,"9":0.011141009810930254,"10":0.013619565569161541,"11":0.007343111774636167,"12":-0.019169694106997877,"13":0.006694334957173419,"14":-0.07345601144902639,"15":0.035506035334730304,"16":-0.09950321397037824,"17":0.05969175300853566,"18":-0.0454856635037526,"19":0.005980846278419846,"20":0.06415463597936687,"21":-0.06786699487181069,"22":0.04273651669767785,"23":-0.08648088550861652,"24":-0.007349156326641253,"25":0.04388476937075249,"26":0.1551997760482551,"27":0.013932357540405954,"28":-0.07456973053886261,"29":-0.020351675084552524,"30":-0.001749988575451978,"31":-0.1407194141338397,"32":0.1588175059104562,"33":-0.0189921536107413,"34":0.001698181874353733,"35":-0.0785295860713295,"36":0.045549591178300604,"37":0.019149493456496667,"38":0.02088683480082189,"39":-0.04493981554111616,"40":0.04359950643007357,"41":-0.06193742377657058,"42":0.02536977779699406,"43":0.008204752345321163,"44":0.09348047026221147,"45":-0.03621457739813544,"46":-0.08885876255302254,"47":-0.02667924708836397,"48":0.035838391630232995,"49":0.039943735984613,"50":0.14097254171028117,"51":-0.07695966513798684,"52":-0.009492122480031685,"53":0.011044429854079184,"54":-0.10075888812385637,"55":0.09488715249613852,"56":0.006160308795284883,"57":0.03491939013539726,"58":-0.004806717388319012,"59":-0.06562231855207276,"60":0.06877746077118693,"61":-0.06094069421231756,"62":0.15983417837647862,"63":-0.02278055955405858,"64":0.013859112989129936,"65":-0.15857793883652901,"66":-0.0606453683674737,"67":0.077304998760598,"68":0.048511851440507445,"69":-0.2138495731548945,"70":0.04064884359140689,"71":-0.048718896538511865,"72":0.022756096830706802,"73":-0.05511666594064279,"74":0.04181119037517641,"75":0.0686654339163285,"76":0.03319870940458397,"77":-0.11429154253097064,"78":0.022294492494732143,"79":0.046266490942340546,"80":-0.06418027126652097,"81":0.034986324542332616,"82":-0.033560440702568396,"83":0.17297523369819073,"84":0.05471738400981619,"85":0.03888402864835173,"86":-0.05749804663715574,"87":0.07951511502398638,"88":-0.02730919616422329,"89":-0.012157297126313055,"90":0.046352943660069174,"91":0.015213571564492321,"92":0.05106614487553353,"93":0.14756806034255374,"94":0.07374657501635869,"95":-0.030334732071870815,"96":0.10109539424436235,"97":-0.07539958235792468,"98":0.03184275632699182,"99":-0.0008108098583414581,"100":0.056434708225393725,"101":-0.07797319555060034,"102":-0.012547429174301693,"103":0.09154889375970322,"104":-0.030958465169127296,"105":0.10137617483065652,"106":0.018138848699119782,"107":-0.005046727760209496,"108":-0.017539743124877036,"109":-0.14394206259013165,"110":-0.009774703789516526,"111":-0.021934346195731695,"112":0.0570679185933171,"113":-0.125641848897333,"114":-0.0022909446155111855,"115":0.09307626293803402,"116":-0.04795552223293974,"117":-0.09891486743004066,"118":-0.026715617957959268,"119":-0.08164046627581209,"120":0.02929356870060035,"121":0.11369959858179982,"122":0.18552377764569541,"123":0.11653893238952186,"124":-0.0501148377370614,"125":-0.04174766201783705,"126":-0.05084219384743341,"127":-0.09104402949981474,"128":0.1772492306521704,"129":0.010230852740910486,"130":-0.04473509999482734,"131":-0.048444327934962644,"132":0.03768225465652811,"133":-0.10578058871907497,"134":-0.04110653678622948,"135":0.07341707981951852,"136":-0.058082908921903424,"137":0.1437550071787986,"138":-0.06938807632794883,"139":-0.0979064558469284,"140":0.005567315439161176,"141":0.04570937792515451,"142":0.006131114788537673,"143":-0.04039180722367503,"144":0.011454260518059768,"145":-0.028688960760709804,"146":0.03148442162306115,"147":-0.033134345105266874,"148":0.06817832898411552,"149":0.0891825184249581,"150":0.04289565729069836,"151":0.0005739333107135543,"152":-0.13186670962770716,"153":0.03434989833364992,"154":0.06122068009784839,"155":-0.10733397022785256,"156":-0.08045316674991358,"157":-0.051475130406397555,"158":-0.008631104144647047,"159":0.08281820032171248,"160":-0.03622825960286444,"161":0.02968745821131143,"162":0.011462102996062543,"163":0.045564963153203075,"164":0.011957456259314648,"165":0.12807377305006185,"166":-0.008787868598019959,"167":-0.05141956057231088,"168":0.09219294092504678,"169":-0.07735408507254918,"170":0.000220577539012962,"171":0.01348101571308952,"172":-0.008627864707688943,"173":-0.11393388855814932,"174":0.04355350047454889,"175":-0.13184081055603028,"176":0.024463436056228496,"177":-0.03981176825757425,"178":-0.12002072068714399,"179":0.11203319899439183,"180":0.23616156711670427,"181":0.20992081162087414}},{"sx":1,"sy":1,"depth":182,"w":{"0":-0.11475807742284073,"1":0.04233320261112632,"2":-0.049836034883011394,"3":-0.09090560488989692,"4":0.10122440609595913,"5":-0.06811388822753696,"6":-0.09978531026508317,"7":-0.22043535531299221,"8":0.05403503907980296,"9":0.07173032344339464,"10":-0.02018918119749104,"11":0.10148591518003203,"12":-0.04544415399097093,"13":0.017333087524930787,"14":-0.03467390441723367,"15":0.10699044568051459,"16":0.03419003055108187,"17":0.044365018074925135,"18":0.018456002659010262,"19":0.12493731828326318,"20":-0.12031659018228787,"21":0.06394749076331958,"22":-0.027401071687968598,"23":0.09773365847672284,"24":0.07672106856650243,"25":0.021611974683780122,"26":-0.07802846979358095,"27":-0.09250704765667829,"28":0.08972884140180219,"29":0.08844571539297129,"30":0.011294978942779869,"31":0.02860809381155898,"32":0.06084539965589619,"33":-0.052477158974719405,"34":-0.04342507330756524,"35":-0.09732837661416034,"36":-0.006202729632795539,"37":-0.009455911708503023,"38":0.038997608047378715,"39":-0.025679769589235228,"40":0.023384663561585278,"41":0.11097964386168903,"42":0.0059283933786733346,"43":-0.019904662314832153,"44":-0.023719992465305317,"45":0.04372272007830991,"46":-0.11243101622089378,"47":-0.1894630113633317,"48":-0.09075424355984044,"49":0.012631619127491996,"50":-0.053535321259804966,"51":-0.07640435733113334,"52":-0.03127483077742469,"53":0.015268363044629155,"54":-0.06964369271286247,"55":0.1268478534580717,"56":0.0006687087282695016,"57":-0.05110752985776266,"58":-0.07906893132927693,"59":-0.057259096772512265,"60":-0.149361856095849,"61":-0.0009757398835849845,"62":-0.016362535114203464,"63":-0.12411235252721639,"64":0.14064337849256653,"65":-0.007733703254058496,"66":0.12604533899295595,"67":0.08927893022951092,"68":-0.01615105076375646,"69":-0.021243592212741705,"70":0.016820901819867846,"71":-0.052860608950597465,"72":-0.05975721310274747,"73":-0.045621040266869084,"74":-0.08830621269717237,"75":0.02887762001200937,"76":0.039417187996759355,"77":0.09202144247637092,"78":-0.1059250090968333,"79":-0.027980480855897907,"80":0.10090322740901359,"81":-0.016126162307994903,"82":0.052166519161771494,"83":0.09537299417400107,"84":0.11591400303887427,"85":-0.19333399180407654,"86":0.09045054452282773,"87":0.024150938681507556,"88":0.0026422354219204293,"89":0.024057607664699374,"90":0.05178658138706143,"91":-0.04066123210701783,"92":0.10769758399059833,"93":0.05620601246962315,"94":0.0076514211175904056,"95":-0.009086827475895428,"96":0.012213110669551039,"97":0.05702537750902581,"98":-0.022189964210860603,"99":-0.06835391513435929,"100":-0.04662774406309116,"101":-0.10558295295236478,"102":-0.0329500252147586,"103":-0.09385929083432384,"104":-0.16251549068665957,"105":-0.040136018453263284,"106":0.1377375543022252,"107":0.15234276439750916,"108":0.1518702083765601,"109":0.04109629874150563,"110":0.3755117673476277,"111":-0.11934114277439523,"112":0.14257040621931644,"113":0.0626447012101358,"114":0.018005527744596364,"115":-0.07231961367173678,"116":-0.016357110313610302,"117":0.0004158489815809868,"118":-0.023982797028369616,"119":0.15140610140882463,"120":0.09388570993553164,"121":0.104430946886994,"122":-0.003988597131322341,"123":0.2502084488954945,"124":-0.20478002467854692,"125":0.01847900759495533,"126":-0.014057648834028687,"127":0.11142736428942772,"128":0.12306859204666122,"129":0.0048051980933289,"130":0.03922533795628737,"131":-0.026258663939116775,"132":0.04219891245437217,"133":0.0922863776048438,"134":0.14932157984921265,"135":0.013692115715675648,"136":0.35082250064844755,"137":-0.041869582749563726,"138":-0.06633789798083024,"139":0.11255126828065053,"140":-0.09776647050834511,"141":0.06755235139498411,"142":0.1071812413091781,"143":-0.15437867460899016,"144":-0.015506993994375221,"145":0.07770874993008242,"146":-0.029010515985247752,"147":-0.005483353445166969,"148":0.0784014039633387,"149":0.31985448937391775,"150":-0.13388466101798718,"151":0.06681541114203028,"152":-0.04049962525589185,"153":0.06784339049095423,"154":0.11668644980040434,"155":-0.07882406824012145,"156":-0.1390790182414796,"157":-0.12722692696989207,"158":0.11491416008232266,"159":0.015224161646567659,"160":0.09126975027190756,"161":0.07243910888323356,"162":0.044199192327947605,"163":-0.1558183337843271,"164":0.036079588903636994,"165":-0.13489555158215324,"166":0.02708995934492787,"167":-0.025000823125267673,"168":0.13892361584558693,"169":-0.13150640710553058,"170":0.10750500379686656,"171":-0.039319526011803406,"172":-0.0006890707012823244,"173":0.038230177581816065,"174":-0.09071570787028888,"175":0.13816678130870494,"176":-0.15095799073185967,"177":0.14024414668315044,"178":-0.03754755763641341,"179":0.03190699941021322,"180":-0.08651723143514715,"181":0.0034764484411861814}},{"sx":1,"sy":1,"depth":182,"w":{"0":-0.04780253356334533,"1":-0.09183258211728526,"2":0.06485757984950083,"3":0.07015865028471856,"4":-0.028701474776121408,"5":0.026787897698911035,"6":-0.45388051268223956,"7":-0.23163223644160277,"8":0.026161969800259234,"9":-0.009826196394849608,"10":0.0429737163899293,"11":0.05740494320463598,"12":0.02923311373131893,"13":0.03988234951468457,"14":0.10338018787788432,"15":-0.01597178648442251,"16":0.10390138456951957,"17":-0.04914450800549819,"18":-0.08128855281452813,"19":-0.26713025457142736,"20":-0.06937827365381052,"21":0.027338122610521196,"22":0.00961976007204574,"23":0.004237892430249579,"24":-0.0026007229185083442,"25":0.004898362904393324,"26":0.044951683433277566,"27":-0.04222969157943456,"28":-0.11849430332815518,"29":0.12079658183358606,"30":-0.06797116551809358,"31":0.003159722076262253,"32":-0.31334828580259444,"33":-0.11436793399015333,"34":-0.1253406090012214,"35":-0.01820582439200278,"36":0.019953602871139037,"37":0.0148012952137737,"38":-0.07958593712926919,"39":-0.008968770357624823,"40":-0.10755598888139672,"41":-0.00247568059802959,"42":0.06824037882952115,"43":0.06531957236690088,"44":0.02570156576638036,"45":-0.1255898469997317,"46":-0.0785541110464292,"47":0.02989736193149465,"48":0.09429201099930515,"49":-0.08853519809280819,"50":0.06630527566347838,"51":-0.030959213443966196,"52":0.06926173731368773,"53":0.061505409818640666,"54":0.10363139892485067,"55":0.005082895253856856,"56":-0.011273940027723727,"57":-0.13732084022779023,"58":-0.24763939432484552,"59":-0.0390795256513967,"60":0.008635699393311899,"61":0.08248698898321624,"62":-0.02849206125715607,"63":-0.028513662271254608,"64":0.04411974308774536,"65":0.11767237937909905,"66":-0.03280679434315075,"67":0.0012754020846968573,"68":-0.01604876926193216,"69":-0.037581822002494235,"70":-0.13872843372989666,"71":-0.32729697878866293,"72":-0.1532276698810497,"73":0.006351116886656281,"74":0.07876150821011685,"75":-0.010964975632455156,"76":-0.030685227618835752,"77":0.06682626994344452,"78":0.006552232861403379,"79":0.04498469590063347,"80":0.04556381673731586,"81":0.02572030534761056,"82":0.16802473609626695,"83":-0.03686845736365431,"84":-0.3603315604584066,"85":0.04559067106634927,"86":0.0008965281442851449,"87":-0.09780775923636911,"88":0.008810616382554683,"89":0.02456720047439891,"90":0.05996554975649548,"91":0.05530640814574129,"92":-0.06906031624271657,"93":-0.0015013270656441579,"94":0.03510607980369662,